{"weights":{"convWeights":[],"denseWeights":[{"layerIndex":0,"weights":[[0.011989960397048303,-0.00803406506759042,0.07154949082547558,-0.04553461367349671,-0.02090648852049147,-0.06558137898447661,-0.02889326145349727,0.03132780273182272,-0.011089145724573386,-0.09080039199615195,0.005315852600597205,-0.01861500821376693,0.06330055737436033,-0.06868146874854872,-0.09571608422288241,-0.0010094917981954422,-0.0452561946200126,-0.048900255474297806,0.06980925675676371,0.05241455685509738,-0.0019035746366858936,-0.008451217779012874,-0.0881241504411089,-0.023722626986345013,-0.011585264171403691,0.035565006832863955,0.04132204928253279,0.11069279165433153,0.10408469712264934,-0.02608902728316675,0.019418840146191937,0.03565995459895738,0.07824061518997354,-0.015191467788246829,0.03501566410139473,0.041753592539384994,0.15763406554029624,-0.04089269808695447,-0.05028877183087362,0.046301247989606914,-0.07085431731517494,-0.015888607129506925,-0.09194560661236495,-0.14171354044316592,0.014578682775032468,-0.040586008365386755,0.06166109213223126,-0.06312794378627024,0.02014167988305438,-0.02679409300089276,-0.06128892574494182,-0.022751113322566623,-0.0023073834599626037,0.051525337498138445,-0.031820818189249145,0.05490087942762968,0.027700360433477438,-0.0020629667019029887,-0.0011230281459255254,-0.06190503824149099,-0.032506987494033926,-0.05265087524937462,0.09276981288419707,0.13595278123535234,-0.08172201253209552,0.12063524041931337,-0.08145616588335784,0.06657049498296336,0.00839986618830785,-0.04349037727736744,-0.052801171307936,0.0004267147894941159,-0.06449564332445284,-0.030982486547882337,-0.0743094384664943,0.012310960707206246,-0.10716943505328518,-0.06454726863121907,0.06667461608749883,-0.030317549261205185,0.012928607254983574,-0.02495559123441622,0.031764336315393826,0.07410324398740617,0.048159224589669425,0.011947124616765625,-0.039385717992585466,0.10661668342893943,0.01889853899928832,0.03426592331482951,0.09281946740230212,0.0029916668002193504,-0.052283243884629155,-0.012453724339240973,-0.058555046918313806,0.03874538108937724,0.004246379024031821,-0.151179718540506,-0.18145318640927166,-0.11713173960628165,-0.08590745922863273,-0.08657157619682364,-0.06934428392828312,-0.11616478777707961,0.0009622746668746935,-0.025145187055714124,0.0002059052046265352,-0.07028027957446573,-0.06282444184886517,0.0623552967645687,-0.1416849298651874,0.09367845456236154,0.04613426175098696,0.017249643776929263,0.0342634695117905,0.04481352090863377,-0.02830986117264669,-0.02339780724825084,0.023098600530596668,-0.09559808950578505,-0.18570023470856717,-0.09341375703233269,-0.26273375529781934,-0.19650774690872078,-0.09500397352869656,-0.003815138119297392,-0.025620157203391926,-0.10293630019066113,-0.3576252163827103,-0.13913468037470542,-0.39314071388170735,-0.38646318417231135,-0.2875449970059729,-0.13511995686543352,-0.3906203920969843,-0.12849855791490106,-0.06644332700468898,0.13647923209657536,0.0976643038627345,-0.05726620802777569,0.02476392774161841,0.025441328310042834,0.06514142252483562,0.007848618089710897,-0.00558485898098238,0.0030032658608534555,0.1251014233734986,-0.09411917223693325,-0.17819203016204035,-0.3514027872725283,-0.47637367299376326,-0.1839235159582305,0.0026935730504225293,0.12129738462537519,-0.09226336678829582,-0.21781648559524058,-0.2068856456048015,-0.26690464424754357,-0.4439392424990612,-0.5348249409134767,-0.4087140155901613,-0.4443675226252906,-0.48767856335736226,-0.6096094176461395,-0.31207366394490926,0.0013590630527866158,-0.005407821921555331,-0.02036020591502401,0.06819630252261577,0.0063901101701933,-0.021664446641336182,-0.015441359858939088,0.08163990327145795,0.17247634723701044,0.1807193751537649,0.1008848556424205,-0.23120933125190468,-0.4249298805821763,-0.25089758661738093,-0.018231073688733244,-0.33974042214634015,-0.2067630763943698,-0.27226626320010905,-0.27709482255901735,-0.42723394311420076,-0.3035740875860703,-0.2943844149931958,-0.16690391800962304,-0.01751955850183607,-0.1523871987253097,-0.12177384720898936,-0.24387782332003421,-0.08908615403754855,0.00744064009498776,0.026145383862170274,-0.05618618263817788,0.073073872814012,-0.026328795002916017,0.06506344869588873,0.037704294505278645,0.05310572679233442,0.013358597483639581,0.12282376783530309,0.044413221670535234,-0.18406373744264773,-0.1894262335992772,0.08040505686273447,-0.020311351143059056,-0.006363709409550928,-0.13458097836836222,-0.33112912289820823,0.12984351155773094,-0.09878039577358057,0.019909919875966166,0.09709112253264328,-0.2537359704636308,-0.07597968108813515,0.19161883315937517,0.43191672316720453,0.42217616986237566,0.26447736836087865,0.07861655598346312,-0.04281184118329735,-0.0064138024738788066,-0.11141720739046782,0.012184927261323742,0.015101665393059854,0.055763549520048354,0.07014062825764354,0.0010555873940666085,-0.011205408172447558,0.1052174866177699,0.07387119289156782,-0.055450169174933124,-0.2522457106999379,-0.064797100503576,0.47108890324593994,0.2278049209554994,0.158172318322819,0.5994966282453734,0.6306877416849058,0.3592877678509561,0.7719756840836969,0.48001366092290454,0.4287236436405177,0.5294517278447517,0.481103874050496,0.7510864517041492,0.7356476315955852,0.19887635409507337,-0.026059895492445934,0.0030152360103161465,-0.0616246183061891,0.10296363563733847,0.02779091398242478,-0.044924876812343834,-0.08492157384604401,0.08705855186673014,-0.10985141933050345,0.11667095281542274,-0.020770655572724804,-0.26157844816874054,0.055188624223557164,0.35458254591518984,0.36520583008412655,0.6446252814337711,0.7294840063591725,0.674646499230205,0.24977780205783073,0.8720477767363862,0.8170761193658039,0.2639898177915712,0.23755468728831897,0.3603136190470646,0.28954593982507193,0.31621772939835496,0.6815548052577279,0.24456445575892005,-0.06477778090710769,0.0059621019674598675,-0.010036610981647758,-0.10449770860202216,-0.09135541135121962,-0.011831453373739925,-0.13287853065943228,0.021318629813057738,0.1407671630384109,0.211278623881499,0.02700497698787338,0.1738494485326878,0.4540344223962492,0.341916299103911,0.1475050200399106,0.3457018575992966,0.05876367509452671,0.15495111988694035,0.44165205356657294,0.17694176773406103,0.3898360886222205,0.1867172563378086,0.08718657640507677,-0.20619173757034706,0.08381660193995827,0.08899110924128963,0.5055237274085342,0.2906792058055955,0.17519892841820234,0.004475238243186998,0.04879575608538056,0.015229890259543749,0.060950905999945446,0.08047509920915122,-0.13551747779472284,-0.1746261778220447,0.19655248248588314,0.2423824518563393,-0.08804172220786494,-0.03103829869383996,-0.13830025555348047,0.3749188073157898,0.4260582881937994,0.12123353654560354,-0.03306018835869875,0.02672398068089358,0.009985107602631924,0.01713588027557507,0.020395485209132442,-0.14379640304804273,-0.41669800126673345,-0.5658585165464295,-0.05805041386008003,-0.023799167035124146,0.2897431384294362,0.23667107745774216,0.0931949610018859,-0.04818470993216415,0.09936668854406,0.04056791732811545,-0.03883536237882774,0.009790652938315757,-0.06609192334808284,-0.2308912368038675,-0.004904395925568573,0.32475279495622755,0.23474722291877087,0.5300348556160097,-0.0570331216008128,-0.03386242459627833,0.24075453922049642,0.10974371319307097,-0.22907079822356846,-0.060925146110448844,-0.4047486262026345,-0.3436672964677387,-0.18013949506395072,-0.3030433163209362,-0.44422090812539594,-0.5568019865043972,-0.27081007764194415,-0.408588777020763,-0.08664466711243413,0.01601636724122592,0.01839790587984855,-0.02530158604214413,-0.05275355657948559,-0.012980821129237955,0.057763690171291265,-0.09607274226339864,-0.15399303277834808,-0.13010233271720503,-0.1132254946028416,0.15532725814841783,0.014231110590714432,0.4527759498633819,0.16439425624237713,0.24470942077421332,0.42920007811673827,-0.08716744439627752,-0.40615890823936,-0.2982499154188948,0.0569425063207724,-0.2496001312395635,-0.2825084722767833,-0.10668965400433582,-0.12379171783686968,0.09477940871105778,-0.022245801785789936,-0.2994923438360841,-0.04322934178683825,-0.06945267538895578,0.02632088858293855,-0.03189540146719529,-0.0025070154486460145,0.024827591785671538,0.03189496930920284,-0.020180773185051216,-0.15180156942542225,-0.15828544146126142,-0.007502017236773201,-0.1461511306657228,-0.204503376405675,0.3271838346029059,0.3082400674692018,-0.2149765876207845,-0.1610455400487474,-0.549149572435721,-0.3707142650760769,-0.2695696612318046,-0.22158897518141352,-0.24024561258998786,0.022818799184214884,-0.10874198243887025,-0.008759060761392008,0.01425523842425502,0.0788031124322884,-0.17961380332886726,-0.13425436499247315,0.017677440474664324,-0.005364653875086424,-0.0031274666754606555,-0.019691614707574964,0.010834668875141059,-0.09733475813146514,-0.049288999780706645,-0.19571211301101044,-0.13658376934040103,0.16320867832163227,-0.1472903679200748,-0.26225896050395825,0.04913646010794923,0.14975841076433005,0.11273565215381039,0.09790070676267187,-0.6318382768320362,-0.6268432983950936,-0.7129778490618746,-0.41844104760692796,-0.04165261899916723,0.0203178291521367,0.09938332377116232,-0.16372457916145694,0.06572770777072606,-0.0962799027767631,0.08675668049462305,-0.08402755200188278,-0.04786859727250264,-0.09809176986647333,-0.06079390554962535,-0.028593616373607748,0.03418944237452051,0.019315718564618653,-0.04493219435970279,-0.14226633277463352,0.07427013709834815,0.0849635721496095,-0.11949559930456945,0.1808694178366495,0.12950603026711885,0.27426373429486767,0.04570707428209969,-0.17492774454282228,-0.5131917341666453,-0.739869586607885,-0.586028697710917,-0.4674867564875217,-0.1904639238465397,-0.2699804431308499,-0.3721076501287774,-0.2025221815623095,-0.11700926001975147,-0.042228151651840615,-0.07384177727556317,-0.1827801375408825,0.012803210124207579,0.04817934643400711,-0.012824319074443962,-0.028074615774991596,0.0580062313518067,-0.050496944277988,-0.04167129147581942,-0.16466014770018667,0.1230704475248266,0.3989921738543089,0.3547202556281719,0.20256266934214312,0.19250502146422402,0.24779292133405442,0.11541609433110903,-0.7196726434535621,-0.3262564458809055,-0.13004692243829213,-0.1801281191407382,-0.13408314489834317,-0.010501358157670443,-0.031239214683859467,-0.43813075650492384,0.02807317368646072,-0.10320634792974108,-0.07647648732894001,-0.14294171306837866,-0.1945712367015671,0.09864528194592781,-0.07078787386222368,0.03299424009670812,0.0028967378163875976,-0.043912383325158164,-0.008768553257770295,-0.1611886883910524,-0.30338868876394076,-0.23316983806507324,0.030764259277982566,0.23814386949095925,0.17770448957245355,0.019688336879332243,-0.5282642156327347,-0.4356734710599817,-0.24499460871005366,-0.1652305182823494,-0.20344636896520504,-0.4267794186013001,-0.10857602583830064,0.10913205565933592,-0.1563042406242017,-0.5101277124895618,-0.21061135806773038,-0.17307460519246912,-0.23554866384920595,0.03302817956043667,-0.10642785926885227,-0.06313831949510956,-0.03504908539086347,0.07524151493717478,0.051440896776481525,0.05517348350186248,-0.06893486085550479,-0.1053036326099144,-0.3323772948830814,-0.07588212123222755,0.012260818542057702,-0.20958324477592674,-0.08231305208120826,-0.24466625147096344,-0.512350591900415,-0.2885564228765118,0.20755202971696018,-0.17577230829013848,-0.32272745221183036,0.05107629752381167,-0.15407306672911272,0.03862194439108743,-0.018714068399804794,-0.19745009025807733,-0.46914343241923656,-0.4369841648315381,-0.18789371110081365,-0.20577866135041742,-0.0937501506144857,0.048424208200422814,-0.15382546074352713,0.002363989682659925,-0.00249160450201212,0.05555412109322002,0.02005500703493746,-0.24906973056853815,-0.45765476562103086,0.013312496542873753,-0.15635160725514782,-0.3120874864027017,-0.061196234774145694,-0.2644067254805254,-0.050750272250596064,0.28158776652240736,-0.060424017779519945,-0.3274127558829446,-0.3511536051820032,-0.02000776144913551,-0.0795861311779597,0.014237710412755082,0.14735465101225206,-0.1596189665727225,-0.5209874594886535,-0.4741063950113762,-0.129525794000092,-0.09998368586172407,-0.1178457081401949,0.03765436801681423,-0.06139680366777772,0.05027338205273368,0.03346585309344825,-0.012256336511885036,-0.026858135787378723,-0.08471443771528941,-0.21974900115218146,-0.18146372133025748,-0.16217505096732857,-0.22511175049804838,-0.03532247842495465,0.3894641744348897,0.15532737259952512,-0.09130376941212202,-0.11902690566185448,0.01161310239895577,-0.4319539661723825,-0.1705748185087071,-0.2862455642831962,-0.06788611433883703,-0.14556905108060864,-0.32291709201775526,-0.3196050251951641,-0.10048713716320999,-0.043878508255681625,-0.014120599344391612,0.044720398709229586,-0.003957056368021242,0.05859076881945782,-0.023581644774680666,0.026601603233529208,-0.059515842441209305,-0.052232544541399126,-0.07614733337795326,-0.17378305298063987,0.0028567161280401276,0.06663133343503667,-0.01861512658849175,-0.07319623511875412,0.27211378308719325,-0.2439622113192649,-0.4846038410780447,-0.0958497999715832,-0.09251448848042888,0.030192172746519964,-0.09856665390125224,-0.26406422277685593,0.012202041504733956,-0.24576913222599125,-0.3989663103742873,-0.1455231179622532,0.07262144739910635,-0.03082538265640454,0.12301159208969628,0.07801742789189504,-0.025560259568867722,0.01829770605980767,0.03852485598468389,-0.03714242852954462,0.012633949775462549,-0.06250165444860217,0.013021960148734154,-0.012220015089144064,0.044144945305675344,0.12338842314543902,0.23308395215673425,-0.038588888033520105,0.17121927616365443,0.09310123177152627,0.018852888322651275,0.22299875706240718,0.0839635896656548,0.04210322946859475,-0.24435589537991478,0.059998093518552134,-0.153281346563312,-0.20502042144031157,-0.15450308608926863,-0.00682034952381459,-0.06941167646782334,-0.06119617811218686,-0.06569239195869055,0.01721642628547451,0.014448621978803106,0.01930742324556931,0.013414212411947122,-0.0028210312997134853,-0.06526976169361409,-0.0028915653338195536,-0.06562210596063968,-0.03401550317351029,-0.08260562259634889,-0.2793994098939558,0.05706249956095389,0.06026326771322602,-0.010209873481233587,0.13878767773818396,0.19715929551305555,0.1424611756872515,0.322715729060038,0.37999345432767345,0.09090895887394723,0.20493448499840258,0.1736939062129534,0.0397605815686149,-0.24762233961388921,-0.1495357264121389,-0.12053857065436811,0.02659309958132209,0.020372677903596884,-0.040342340347048575,-0.02581542710730471,-0.1075163166912569,0.07068399121142724,0.03231003270260797,0.029643888183356983,0.03717482392818242,0.02595922669077634,0.04095193058288577,-0.21247922734668998,-0.18288476788698635,-0.1468508198267472,-0.12640731010275613,-0.33007518701727484,-0.47577298797511086,0.01509824841862413,-0.012647989795903978,0.3447814201983538,0.516837788580034,0.20307197767199947,0.5012789252977491,0.5353023444084181,0.2053161002580216,0.10623711577544565,-0.006804663765223531,0.11504275392397233,0.07430589165256349,0.03642561839900393,-0.10128270007072243,-0.09638113719673377,0.09395525852895326,-0.07866422020503502,0.07991004632359104,0.06902498295063479,0.028382995965495178,-0.13512587014912048,-0.060683787276856326,-0.2923921937674649,-0.29095745909197546,-0.05055653305406271,0.1089871219306403,0.07160588046549138,0.004545169719288143,0.08787324052982994,0.06340251958889176,0.1666097199482416,0.0731944884469597,0.10183358052054614,0.0585390074434608,0.03097366799488675,0.027787851834018336,0.026895296673987813,-0.004118369395895581,-0.021748751465989067,0.029123953968319523,-0.06497021335977665,-0.002746189557256494,-0.008821912189308768,0.023924812101544905,-0.0030431761246875275,0.0140501364948646,0.010486662476591534,0.08589217500942449,0.05207153151790533,-0.06379740550836648,0.043796503050086394,-0.05532631045328745,0.059000099961524936,0.002782810572367255,-0.06439250936177272,0.08165126120448206,-0.07536325224590168,0.005051100209484915,0.015450310306924547,-0.026098300011557014,0.04814786586175647,0.0019371518474452763,0.04913926652091301,0.08441127296323474,-0.008482992251842271,-0.061882616881279245,0.09191002699967608,0.022836974811783522,0.041783947573070884,0.0656999608449402,0.060365379997047566,-0.05853242196965426,0.02154782190419873],[0.04367934028077708,0.03267432718150791,-0.041348759531107844,0.059054580293306666,-0.019641225826669665,0.01515963712619128,0.001551118563037411,-0.05168019371309664,-0.0010407473923353657,0.00412511269388536,0.050622715248492114,0.0574430652297529,0.024151363811409428,-0.07011645645956181,0.061312829775477015,-0.025346883756793732,0.08117011581735924,-0.04472866048376113,-0.05857292381372147,0.023382211151518933,0.026241221173500244,-0.015431800779948398,-0.04533068546899898,-0.03405089373430121,0.044493548652426364,0.01691111717865982,-0.04787525526662101,-0.059020179476713314,0.00491015756749084,-0.08276822387759436,-0.038401875499737774,-0.08624533379035114,-0.055162896245504044,0.08959317280146668,0.04419175034818548,0.028408969800564683,-0.011614070783721363,-0.0012778875085589355,0.06941063735374958,-0.012256770323886008,-0.08256251220068275,0.09059422565766224,-0.06336613797080601,-0.05141196745390662,0.022097945751325787,0.030911646819497637,0.0129328506865191,-0.09869014210191678,0.020161676512892628,-0.07607246205950857,-0.062006377617535725,-0.035642215519685806,0.012317528984848253,0.004318491624577262,0.0536866794564732,0.02725068915442219,0.040169129988056294,0.010362083407594334,-0.0006774076138279043,-0.019722696226619523,0.01602278944857259,0.00305778505276143,-0.043244725648218026,-0.014229810284033305,0.023655342759036482,-0.019822449270760243,-0.1205092881286127,0.03710348640764093,-0.041440315181703546,0.021180935279625702,0.0396135701746481,0.016367049477617683,0.03743623458800969,0.00806695576155329,0.11586589879574252,0.0344774594982268,-0.05116502808731264,0.037941670667983145,0.07636608905899357,-0.005413150488613805,-0.03788925098140871,0.012751707387254873,-0.01813331607241304,0.03899483087217702,-0.037229997211117465,-0.08494571822115783,0.028605625187160266,0.04800145433299036,-0.00878786256160128,-0.07614870838354137,0.01969171994158108,0.020273153346044282,-0.09254630313309821,-0.01276111138493822,0.004960316829593286,-0.1879046437724049,-0.05897772617574119,-0.12420973571894071,-0.07799312594665554,-0.0012790050125704778,0.04317441546433922,0.05231828577038758,0.0019480561465983945,-0.10095550850131546,-0.0027611528430178645,-0.03814255482084732,0.01114270957339898,0.12378036606845148,0.060121557241788796,-0.07166702595735755,0.02975558813208988,-0.010983009042593937,0.05652202457356545,0.10398145486498789,0.04145439805424761,0.06374584137141807,0.0767571926346127,0.009381244233164904,0.013097655021638453,-0.04785802241262279,-0.07128113779469857,-0.0860258937546198,0.015292311056517785,-0.11063414069374128,-0.24100277673771855,-0.10355925965410125,0.07601558917419893,-0.048512435571402564,0.1432921497942832,-0.005955800757305085,-0.19482643239288666,-0.13248991884342515,-0.045946519664768336,0.13979736463147643,-0.10632686451534766,0.0560560935301535,0.13543186227698176,0.11527036910874949,-0.05079718643498754,-0.029663889140260566,-0.04635908478966272,0.0007693773595421363,0.07345198727636498,-0.0029022509935081133,-0.06893366685604192,-0.03328177308279184,0.0010161391510477144,-0.08648804690991478,-0.10422433192448544,-0.04652097086007356,0.1448970227859341,0.15750785808940715,0.1778179079242168,0.20878150666591483,0.048737227599888716,0.00934875011824558,0.1825785914923878,0.7289373460059778,0.18504517444281285,0.04615856462267207,0.12419347459938522,0.20218818537070013,0.11344200470117802,0.13528282896040694,0.16197238749420784,0.1442494758992583,-0.016403504081680204,-0.044276136771260084,0.07799673183994511,0.008869043994452161,0.02208806120317861,-0.06339594504529686,-0.035701265139675295,-0.06606329726921337,-0.13353862240230346,-0.11480990756202437,0.073337260488574,-0.11281564982512743,0.20469430535110333,0.21194121443771274,0.25642132410495083,-0.08837972309839222,0.02359598902868475,-0.0028260885174318674,0.060406399570187716,0.23838407080230314,0.48162465388718334,0.20443249586677018,0.28832387850504065,0.24709076789912807,0.23805047746439975,0.5356477529794824,0.2765451922867337,0.013715542815795864,-0.029886213675951713,0.07678963744565208,-0.011029289775740294,-0.0570522352000321,-0.013523405792784484,-0.07296617621792578,-0.014873136335984274,-0.18947244347591874,-0.0821893575039425,-0.2761046982289651,-0.20763367900365068,-0.11371045445892324,0.2970023402952498,0.3001462509802951,0.11301002852543439,-0.0021399547226682108,0.11793921388271862,0.32892843459617216,0.05578337659098231,0.09697040470397447,0.07553013365857633,-0.25289482626497833,-0.18301576129351507,-0.073611136953786,0.007626135969530225,0.11207639058639678,0.09199270536458161,0.1265829679690711,-0.07417310690660031,0.09608219225117556,0.06895230528924103,0.01953824318644045,0.05030286092717284,0.011021352227280422,-0.03784618272030712,-0.15246930782667006,-0.1816412330573394,-0.26358561151686194,-0.46687962727455823,-0.3095977785571403,0.2998444553760981,0.40169092030191245,0.07116119837984013,0.19743457460489117,-0.20738890561944917,-0.5440732366232404,-0.590988928638986,-0.4841352058762265,-0.2837861559356148,-0.2015294315875195,-0.25055831658844757,-0.06814577780069159,0.017284423070923337,0.25893298659583297,0.2473023198934981,0.1328039599603327,0.027139150966702757,-0.031206360717391978,0.03275362837359463,0.0377024308558965,-0.07846767772875585,-0.050052073931001466,-0.024427425524040605,0.0874415578447361,-0.16066993882450936,-0.404678658506204,-0.2838310160473539,-0.2412781576844363,0.3085598453372195,0.32463353761545705,0.15698667510210274,0.4221774673088079,0.032463522129222704,-0.8408550520477752,-0.8967897055046267,-0.23430571874344125,-0.3546707127238325,-0.14196529404506625,-0.017010885990186284,0.33073550413060177,0.26733848765471535,0.24606722833606495,0.31054369156816913,0.09194942940578167,0.06676974590565718,-0.05442753586681278,-0.1052820778666129,0.02205016562197246,-0.017653390513692687,-0.02960680590512356,-0.006157471589543665,-0.06955487281556245,-0.04764809032111437,-0.19735155026984247,-0.2868859911495214,-0.19618387944064014,-0.04223122401778816,0.03058131689250712,0.31382559204241267,0.4684744992601732,0.39559327741264894,-0.48969360423487956,-0.34749717181857176,-0.1786498251362527,-0.23873451826197276,-0.20553849577372776,0.14457921443387056,0.1396097934569349,0.11059133174986813,0.22969870310288334,0.18203784465608355,0.037913597795143326,-0.0919652317254571,-0.018605240750199325,0.007087930413726644,-0.0460948937490924,-0.020793421168054303,-0.02888591000647647,-0.011049700874974644,-0.03956163864876288,-0.27961698333004575,-0.2023151607189392,-0.29738130924988687,-0.30666756587370986,-0.25808035184673483,-0.22792006347383378,-0.017113556872245694,0.3818007413880271,0.4000931621262134,0.3631166274835229,0.26039803610530027,0.3034758168180828,-0.01729064807913448,-0.20711800559763266,-0.04096497172318316,-0.06881898501522755,0.035783215362388175,0.10346920523224092,0.0767435401862658,-0.014374544297489543,0.10919498613708006,-0.010160550239949856,0.03191082977219046,-0.026423622966423952,-0.01380468263937655,0.15312740451153503,0.005558604180474387,-0.14601165784558243,-0.2636629955536905,-0.09963972495243137,-0.5002339880986685,-0.45602705956990947,-0.4983604940975072,-0.45805435538112094,-0.5497072304869182,0.14488283159013568,0.45887361216236766,0.6493035221443841,0.23834386026208393,0.2595599897932681,0.00045390167559959075,0.11981600408847079,-0.10706929034092191,-0.0593479323588982,-0.18795818102896114,-0.14737893318800258,-0.0936631942372864,0.02976072874796409,0.053885078971622306,-0.04706351134768599,-0.10114770973834815,-0.12400096667645781,0.014267344386426033,0.04664718349439847,0.036726569052244716,-0.19555053293827482,-0.22884842060862728,-0.20857637082286073,-0.4540693811287485,-0.5634704054062367,-0.74483079054753,-0.506229955690889,-0.24728034221014314,0.16202972079486933,0.7180468838144142,0.5268598030138554,0.016873163155094136,-0.0129983262691626,-0.39542645790063313,-0.08652751813395114,-0.08934809200707397,-0.23176320832088526,-0.2944086138978842,-0.19230096671450417,-0.02666149262147356,0.0819928633804479,0.023605227230062222,0.04597851701026661,0.08823867135825408,0.00933658648748788,-0.0756936695341203,0.08538038608824289,0.05298288447937772,-0.16841902051461036,-0.09851759626073744,-0.35735943262425907,-0.37577300818632103,-0.46607360683555504,-0.15340659322979236,-0.008670333903945194,-0.06419528203515738,0.2501954127156811,0.3582044025561044,0.23621142442212456,0.03634796336055191,0.005555844334485864,-0.1924585197377955,-0.3005253203761095,-0.23952872780771953,-0.34618396764925324,-0.2036203960980779,-0.03814976676069628,0.05512658315728971,0.03487494939976029,-0.04511264680877851,0.024584681439917516,-0.07816242966524176,-0.013048538539578157,0.017282945083068713,0.012855692597633042,-0.046085623055059914,0.081331714639352,-0.0538464078503695,-0.04649269740993448,0.07755830186651143,0.002478113536587169,0.12385394990597323,0.009922274371617017,-0.12623908567422648,-0.07003400390593836,0.22919381907884376,0.12722928938786962,-0.10854246284025287,0.14667254020978035,0.18654207997265468,-0.05442102095729346,-0.18659712034785905,-0.44498553433072374,-0.2049993063835146,-0.09453596904545601,-0.021250023009541846,-0.018344044764677245,-0.075083760917178,0.022962731214971034,-0.10450682257304734,-0.015701838042013652,0.08602204853910336,-0.05188737986977607,0.08036787160961371,-0.022243532705055684,0.00695828054142003,0.2104415296852504,0.35751740399176224,0.1619340109150241,0.032295491600394945,-0.2771607280559341,-0.3168781300006654,-0.15206788217935077,-0.10550757273918067,0.17244401407457152,-0.026683016933275634,0.19540545186468103,0.25402180707794536,0.12108615081202204,0.027376158561596187,-0.3307905376076959,-0.20747004899894125,-0.0227935413338401,-0.0009834944214479459,-0.020081748330585097,0.06171081489236878,-0.05008095860806507,0.005228101994201983,-0.0025289353230803125,0.0060923745329704675,-0.04591366885774259,0.048905491907851206,-0.07487788366063845,0.24930607046869907,0.35779646093186457,0.3967579729812377,-0.07924475588304015,-0.5907260903036126,-0.2560484290370295,-0.2682215292405582,-0.32598883001826146,-0.3896656278903797,-0.06487518759327662,0.05974145017447642,0.3439344861026202,0.05950279601768873,-0.0001694708915689905,0.010351364361895606,-0.34777558280351656,-0.37363546474398,-0.10253778833200095,0.09627125334615555,-0.04215336005207343,0.020488968734916214,-0.054738531055367766,-0.010080272871198762,0.05721393449490511,-0.012140016750865257,-0.08482460247669742,0.05124849535796158,0.248311589197131,0.49714403417598074,0.5950515049942708,0.08980282505004938,-0.08388934512846245,-0.23010000030504535,0.20811903105191396,-0.13621797517942674,-0.5081909275446188,-0.31491433093685833,-0.2393522291470752,-0.1025754899160156,0.027813087588641296,-0.0076120803772679975,-0.17847143737456267,-0.07965156429608135,-0.3848812490251182,-0.39944669774307034,-0.15639789341911906,0.10832822243558737,0.0672268352388634,0.05127453566320102,-0.06505840262087152,-0.034787170331895684,0.04388004067269621,-0.03616281066633421,-0.193740034657539,-0.054707117213741864,0.18623134283643986,0.39226455006185273,0.15118822319963782,0.1786992453091756,0.11675260667766633,0.2387857402781263,0.3003981949376369,-0.45276743173622436,-0.33495812578605,-0.4885164552328847,-0.27018157597623327,-0.30640164681058846,0.13182508984511673,0.292906893486755,-0.31457693582030716,-0.25120937004708704,-0.2573820566534922,-0.14019671605982184,0.014075906470976611,0.01487721422670625,-0.018743671077438174,-0.04344364810209152,-0.014887770431970072,0.04486393703653204,0.02738720328285633,-0.021432515903357614,-0.07837512610507745,-0.027691295419874955,0.14556594668402886,0.1635563016250789,-0.2624364320768729,-0.11436306961960216,0.1232224451008712,0.18126214129596707,0.10566726965170556,-0.23454966600212376,-0.12595722255979744,-0.05794571097460059,-0.360132781651566,-0.027267887767316777,0.07945959701920104,-0.015956753994122507,-0.12597280996914367,-0.22133396267795546,-0.11513482263443031,-0.03882392854039849,0.09466049431495835,-0.029948572129630032,0.037434243627789,0.06311077772031302,-0.10045299075116214,0.04800735645505935,0.03265806716358758,-0.011918471250605347,-0.1033608988225323,0.06577969581869417,-0.04618336009702429,-0.06089061256660419,-0.0446920647355553,-0.05138497048632511,-0.08336069313361397,0.1444681381352573,0.22190858717738687,0.16075509467605764,0.11414886425852706,0.25698255235933387,0.10834245152423005,-0.039330353607576675,-0.03727392282240447,-0.2593634446816603,-0.07637319952564554,-0.0327181310178578,-0.10993836045393957,0.0377601083279837,-0.09445802919243142,-0.045389229586828776,-0.03531142631687241,-0.023862070246856902,-0.07008692050059571,0.0007009906891097559,-0.013667279100277414,-0.01599030338560156,-0.06339819539989974,0.03965696762448751,-0.176087470895082,-0.039963744839441914,0.01967048775063479,-0.01941413290326932,-0.042914584672416,-0.07845028325670327,0.06284246398375544,0.035990416298704524,0.056347073383552645,0.18864930554023987,0.008640043171119301,-0.04104682742134202,-0.08003248278321062,-0.3430488607451513,-0.2467452652184734,-0.08876078320305167,-0.1285753313822883,0.022128799062316934,-0.007218079541594193,0.014182956594901333,-0.06982008220199123,-0.03324511954579597,0.03498470430776792,-0.03533884985286545,0.03065973032467151,-0.03339775163621868,-0.07495598336594626,0.048310452579761486,-0.2565305607878709,-0.4286939932221821,-0.2646515456855012,0.034146597780886155,-0.05440369450947699,-0.1870515301734088,-0.06498293773694024,0.1452866129294653,0.2791538718422331,-0.1502554580969947,-0.2803069794536447,-0.3209311031671594,-0.5400803414456248,-0.36295872934381623,-0.12905673476456908,-0.23081005707858904,0.019285397598237015,-0.11679357039489419,-0.027635269793275893,0.008225211057646722,-0.013433538930425823,-0.07167211945441318,-0.02443613137235292,-0.06116604486520319,0.041007237621095635,0.018712710512961025,-0.01418631133044339,-0.06385805271947026,-0.11192953271186441,-0.0906574527990568,-0.10852400207833655,-0.22814955485426572,-0.04090087839153438,0.057197088691652506,-0.03945532153048711,0.39882425758886014,0.28503967279213,-0.21106526819857116,-0.3862085252344668,-0.3084141063254608,-0.28782979260505365,-0.11625333983507267,-0.2285228428810036,-0.12517039674416516,-0.01878082385360126,-0.06994825905441758,0.042891615497165504,-0.08460851863220749,0.04918803780908342,-0.02447620329873953,-0.03925406663118634,-0.01606883094921188,-0.02467262365456149,0.0012652487749082472,-0.08328429518315596,0.006137553014252933,-0.039819517299603244,-0.053979831284182545,0.043768662099035585,-0.009263060305605728,-0.009705170952416063,-0.05030263927538116,0.040613481463062026,-0.010088326280446884,-0.0301213015192394,0.005496928841583605,0.04195067645612412,-0.056797009567090724,-0.09300116142418458,-0.14423206750911965,0.043199898320276986,-0.03672695415181781,-0.04196486783878964,-0.07276938219270566,0.04360120316236902,0.05422606733408582,0.004354661545066792,-0.007167328061198776,-0.04934966454271439,0.09445858740136204,-0.06760419121879141,-0.013975869273512555,0.06463525119293777,-0.03711295341293842,-0.04433473598225496,-0.03518857464828967,-0.053046755625042886,-0.0374965829168657,0.03504669085129681,-0.025486281257861603,0.03996919967277964,0.0335871600778003,-0.05473049077056001,0.06513413932003805,0.04448899113122743,0.022565732080772442,0.08439985872240824,0.04833219785427814,-0.10746097039570635,-0.049064622586187726,-0.004638387035889084,-0.006204026094549974,-0.02021935068952169,0.05082435573819093,0.04042140046648238,-0.051517136276333524,0.03153628759448027,0.02069190303286219,-0.04871152292381769,-0.052289037828322865,0.16258308812362388,0.06149295634467489,0.049424857320373924,-0.010937208021590941,-0.05518154697686261,-0.09268136668163668,0.024927581906289166,0.08671456576029059,0.08459928013616345,-0.05918782064974516,-0.04610809264628899,-0.05985740760662059,-0.040735057923060924,-0.02080823358405161,-0.009871805886129162,-0.08141886400563073,-0.024400319547333602,0.0336830869365654,0.0630258753643277,-0.011978809907975502,-0.060180109082148756,0.05614305514737848,-0.002162638010124995,0.0036429862812327263,0.044191332846491925],[-0.09274841934071414,0.037993783756853694,0.060585652812506025,-0.060407181124072076,0.006871465184077209,0.026128339794655633,-0.017277709263944237,-0.0897090397141106,0.01327932770922084,-0.014133021608111734,0.030846879859429892,0.1358912859089236,0.07123880463517855,-0.042773253606233484,-0.027406671148802048,-0.00563789631092314,0.09773537406559084,-0.040607964780970084,-0.08328628924095641,0.02363763253341053,0.014701960533644969,0.04333454487087333,-0.012796367369375441,-0.03090976887614058,0.11217440319921947,0.03792637495173931,-0.009200282399881793,0.02290531729946326,-0.040839543350274524,0.009472644832967038,0.07277671186091499,-0.014417387111160567,-0.05969841049901512,0.037730132620594034,-0.07460769062124438,-0.05037984207364529,0.0016623337441929414,0.06638107817060468,0.02776906426788133,0.02116883987066895,0.04072531312889287,0.0015589618890230017,-0.04675001169381662,0.03108825960499904,0.08906346979904385,-0.02855851657731195,-0.04464044868448866,0.0301945735931136,-0.019750526010485027,0.018588403922904506,-0.10564096374600739,0.03542360801313591,-0.0062425418107409794,0.009479670578727775,0.06705725438347288,-0.020910406526226815,0.01047751101334963,-0.03798042172230747,0.035925677370975004,0.0382276862650242,-0.09467084978396792,-0.1220167498882877,-0.018009948321104273,0.009268804403136507,-0.048725449634539744,0.08809180740167043,-0.04350922632260877,0.041422347301731235,-0.0034901683562605784,0.02763201270395115,-0.045198103232666695,-0.04504787960579479,-0.026383386918871106,-0.114039477622013,-0.002240775406187757,-0.1026201201888287,0.0009743381853245315,0.02159994966618935,-0.022892314225677154,0.03761424189598924,0.09596497330888748,-0.01582051116892656,-0.0025304610603494528,0.09294668481702954,0.004007084282649379,0.0176713002801102,-0.05879479601750054,-0.008129429177789681,0.12394964788131006,-0.022767323162198344,-0.07869100785186164,-0.10635256414163484,-0.03755523956402485,0.1025031370153637,0.07933710799745483,0.20149703295931637,-0.015018156552270416,-0.04882383911861854,-0.1007242696308466,-0.04782009314100831,-0.08941504649737723,-0.2641887326107443,-0.22847429108880415,-0.08312607497036609,-0.16515035610979972,-0.24596499909172845,0.0775553443369397,0.05217875801700785,-0.0817415621818813,0.0249324070034407,-0.027849384542074095,-0.006690066373858141,-0.006595115472819263,0.04327454646524618,0.01706449615961491,0.032443290394200436,-0.013776952662827937,0.0727381627054053,0.16424659982332124,0.05768946000953906,-0.04423423650876858,0.04783288104179284,-0.2824419719228726,-0.43125178223867333,-0.27272972938748347,-0.012789248268133536,0.043026964455092964,-0.05784558954492895,-0.24976966561225716,-0.04909179217229753,0.10698081351733889,0.07431534191499119,0.05589076212895685,-0.09955248921102298,-0.1398557714963813,-0.1433963815124439,-0.16040623479427388,-0.04635705833756075,-0.0017904146603973103,-0.06891706759158828,0.002336539463412571,0.026551978639653206,-0.03946408850026333,0.035311854014687796,-0.09833981214162342,-0.06797151025899248,-0.14418853873998358,0.08641649439327591,0.13234723220387856,-0.12243359606132513,-0.23192335696621041,-0.0802564808471668,-0.13557696423327614,-0.0990243144284993,0.05746558001789225,0.30086286058864375,0.3696133533722077,-0.1469950092308031,0.0018468254049981833,0.015064965423120311,-0.18905028466618073,0.1649736387035084,0.21782272476632122,0.03290183906757346,-0.16308595928552047,-0.004174408646595245,-0.07826755775090362,0.043101138562829835,0.018432331293156003,-0.03797083433167421,-0.11800094623946847,0.013940998063651655,0.028859906469001637,-0.03753612865774029,-0.009130366660728313,0.004831281053022233,-0.20850484454697304,-0.17088443377227036,0.06847036133856535,0.011183465092167406,0.17353715282628726,0.021498522865328783,-0.2110203670223375,-0.5755666529510962,-0.08809851706785742,-0.04295243895711811,-0.34898706755571485,0.018711704462278673,0.03595921347407107,0.3089197444988013,0.00726061679187894,0.08856494895348818,-0.004785696974482657,0.09507556330592774,0.004055136380556168,0.05757709729343496,-0.07450990633883293,-0.05068412454687272,-0.024710352884291093,-0.07237445154691967,0.15324800857394974,0.07686811412584499,-0.15933042789925866,-0.17240428687477205,-0.14384180772202315,0.12053623025300177,0.13938752115340303,-0.42539973563868577,-0.08269258805481987,0.3804399539269784,-0.28027287681095825,-0.3300174052722858,0.2823995593526348,-0.07927487801734671,0.2538473924020272,0.028997495610762845,0.15894428372382727,0.2611744481123217,-0.011214261015236511,0.08056944835552926,0.042099615226197956,0.03219764076476815,0.005909024644931667,0.10108322161206698,-0.04752397846284555,0.07815838203020524,0.028635938470812614,-0.0034947374330745206,0.23637197109663946,0.1897791834860383,-0.07480769553184824,0.029407895165613648,0.1998257978600761,-0.06305875319682977,-0.15946236667480107,-0.5128508603514562,-0.3300524461198275,0.2979237524558127,0.5286962298750432,0.41438462615931304,0.2929137909313386,-0.04791201932845152,-0.10858740563149206,0.05735921235931692,-0.004518420944500205,-0.18526696108942406,0.16234719637860895,0.25458355859939125,-0.03829620865373405,-0.0615917561949596,0.07207643332052287,0.031858293317902485,-0.06460019110223156,0.015038716812608259,0.007648801356551873,0.057270375082623705,0.1544296730247198,0.41141132533209707,0.16414211858664451,0.09521792892111734,0.3929918267699477,-0.15238716222991425,-0.055702427852265965,-0.21707502727831413,-0.1723711508499865,-0.18716002742453222,0.08225920788594408,-0.022763327481912073,0.03949131869556561,-0.21470685885846413,0.02197269525725301,-0.40636988562675863,-0.3843606221470738,-0.22307737515864753,0.22542111119042896,0.2631452704158073,0.1378470782038811,0.10769790714467149,0.02953877220621483,-0.05671027816041819,0.06464461039126146,-0.11747480798965562,-0.005379020468464109,0.09564682355510792,0.12593081494445574,0.28786887882685797,0.4364969044089657,-0.03872196007358165,0.11029574572458864,-0.03678296364372891,0.47633698826875137,0.11189844922651399,-0.177366022522597,-0.40940614526737285,-0.724637864821152,-0.4206970766020264,-0.25123128788502636,0.0013364287449594886,0.04811508776256054,0.21086358768119248,-0.3659436992777909,-0.10483548790864929,-0.13179523180653038,0.17710656830759278,0.19730997494949845,0.052444458963793,-0.02996676220912181,0.02778865643262286,-0.04484431724643464,-0.01802611265808106,0.03333193964171775,-0.09092960703213201,0.12611434301171606,0.21720175193051655,0.5318942987075053,0.36706011101979386,0.05501570153278014,0.16979641610003662,0.3198664919131491,0.5056338620901605,-0.21915912266704327,-1.206342450428088,-1.0197496892081679,-0.5840990702533233,-0.23120931579062853,-0.06429246245870254,-0.15038890291667661,0.33099190413496077,0.17552666819957424,-0.20018726467028375,-0.19988083987585248,0.08732463654323873,0.22220374230843062,0.09569517185552823,0.09231179610417313,-0.07786436588922042,-0.04499163688367434,-0.08458628061152544,0.10928889492484908,0.1160816024477187,0.1212297879431087,0.24599557177166043,0.2021478828466177,0.6981686564182349,0.8660895982600171,0.21060395269111382,0.06468078192293007,-0.12256511274858682,-0.537552468487303,-1.6299146624398817,-1.021071645436619,-0.30267910523405095,0.2153998317541306,-0.30697468254565186,-0.41053534426733634,-0.09285044331401275,-0.18543407697874584,-0.21445150546518055,-0.28352166592143224,-0.2641469718976797,0.16531990319905956,0.06518340488523129,-0.07062317338673238,0.08965180428518912,-0.021228915131519747,-0.062402789749303016,0.21872648630118843,0.11339753566452809,-0.16996033856646767,-0.09722098130630377,0.2528513133406931,0.07325385598545979,0.10314012336354071,0.0760979082199698,-0.22413417550449394,-0.4091140054309447,-1.5014008658108953,-0.8312453556193591,-0.018978305590598276,-0.2901768784959502,-0.14872937760758778,0.14049613615733905,-0.07001609641894625,-0.5289582730395571,-0.3178348020951613,-0.12045409823366743,-0.008881569299858168,-0.28385210538969863,-0.03607540299301536,0.04668720737397691,-0.009294375310976936,0.06738986229405186,0.029939066461815954,0.017295098543575162,0.028676811467767866,0.046917965416350946,-0.352089380433183,-0.42399108115289696,0.018990619541442405,-0.33411377176666673,-0.4043279921478297,-0.46532626208105926,-0.8922886090968413,-1.2424708042564314,-1.012839707119079,-0.14544624683034926,-0.08598807849913474,-0.1023267640434261,-0.17528588025805822,-0.28095446860983947,-0.2727229607147008,-0.11486797038870615,-0.4675242040254462,0.11217600991235574,-0.0891639963117614,-0.28645308781385126,-0.1030559855134461,-0.03138016671216035,0.00004647789364168872,-0.1074739072655097,0.013930659284970675,-0.01395446144238378,0.08322782439434552,0.06369820420258838,-0.39685570837068534,-0.6456988664333828,-0.5824201744763428,-0.8052157062328551,-1.06159023326655,-1.3422409285775663,-1.3023841389437476,-0.5713813277324588,-0.339657434876859,0.015444835255159056,-0.06899006491342179,0.18573842558242626,-0.23147929150613059,-0.45078098505593084,-0.3603759240238635,-0.41562254500398366,-0.4289710754066162,-0.1683942014951503,0.09342561484430097,-0.12570231895215805,-0.057545083661132854,-0.014793428541236869,-0.005013407445729395,0.050697196906526326,0.02664186651785667,-0.041561473736988645,-0.10837016910739285,0.05092650927272154,-0.4235527052318666,-0.6407264707415243,-0.9488618977202274,-1.2624998906750944,-1.4060241137516722,-1.5841367192757683,-0.8063016837190577,-0.1356169306160697,0.2691570917029616,0.29031679126360077,0.06103807017354627,-0.17077425876750962,0.560342030240533,-0.04926284081213359,0.17816254152342892,0.2757307835935067,-0.49262506739984796,0.10942328443961499,0.09649661514026409,0.09895178682078724,-0.016976289333832682,0.07828474547117469,-0.012877378792272744,0.026905876784755353,0.02838849446028694,0.004843101712406413,0.016867090869206475,-0.10346511533348766,-0.2690540392977646,-0.5824181995656517,-0.8908834320250074,-1.2296517473251687,-1.0396646601617276,-0.5010280275254286,0.02363295190091615,0.5630341553387472,0.7012573744083608,0.5490568159433014,0.2799654496463425,-0.17777813016892827,0.10035838791861088,0.2764806509237669,0.4691886643736465,0.042420153106354115,-0.3013523633009722,-0.0685908662392826,-0.1338287263026689,0.09742978115852556,0.14514564170105193,0.08877480470978079,0.02078954964807677,-0.05327913826454102,0.030300465515026086,0.02329440226626488,0.0016245722264415713,0.014097375058256433,-0.18993691806565866,-0.5106384044764885,-0.764973060753649,-0.8289905388658794,-0.5348187457910862,-0.09964690688049324,0.33562445415885417,0.7184229645794354,0.4349288180078144,0.6078317404766298,0.07188627750250855,0.28112798063126104,-0.07591857094072725,-0.10484073093943033,0.217133713358787,-0.18206648075236959,-0.39537817209956755,-0.27500748574669565,-0.2316613018074461,0.22306557285343206,0.18756999067121302,0.04723721135486234,0.03362138678080228,-0.006522793679965157,-0.05628396320628525,-0.09425464839480578,0.027820922013094412,-0.11860037533059958,-0.23481213839956774,-0.6178014518808964,-0.6392736907077515,-0.322118499409225,0.2940851763193736,0.08998135316775122,0.18773213489072035,0.30810053246647123,-0.07839590281934362,0.5412322647524516,0.6814761317563746,0.23883907454079972,-0.1832253213491266,-0.08755127547268253,-0.0527255567691792,0.07772234120914367,-0.2886563809954082,-0.38425461341650463,-0.1876132110433911,0.418621829127358,0.1114485385414094,0.08942638790951449,-0.0017814009779970085,0.025596130738026027,0.05489601102342061,0.08859108363118406,0.16040677164377315,-0.022812926217055406,-0.09878530401060447,-0.30229722554835403,-0.1929005847144558,0.1613769239142682,0.043132259265085744,0.020740111135362466,0.3467919158054457,0.6049382714356968,0.7492047741744914,0.20450186797872194,0.2512903979140651,0.2429708131145207,0.2573915150451763,0.25922797025875294,0.1154685109281695,-0.100912980555165,-0.11824705964001486,-0.16463935908103303,0.13974225586657335,0.31834265533200035,0.31819961150350956,0.0910595533469636,0.024044179507247843,0.019836052502990476,0.02115525628453451,-0.11179183731830905,0.005101966866643574,-0.042751135238382386,-0.0961564537366316,-0.0637158493430793,0.13921925426174717,-0.2378495099883375,-0.4303136143945145,0.030042998608529676,0.2414681828381427,0.012714193400001685,0.16301619559892583,0.308349770159773,0.09067348525055054,0.25589784069899996,0.40474846455455116,0.4735222173769663,0.2387326139609493,0.353119430901889,0.06739770947483563,0.2762855722229982,0.2324545604250947,0.41493307644810756,0.2837841133770226,0.1625373194381083,0.019435108884936575,0.025212068478648722,0.10182027905892195,0.03633916661964313,0.05359517727409778,-0.06617945272491728,-0.037936570173609234,-0.041994165869664854,-0.0797052640183313,-0.0016098422353978264,0.1509785118744276,0.6157167404202899,0.4994353918183213,0.2665907049726518,-0.3166561087092462,0.21606541050406872,0.5270146411800848,0.1022707461356738,-0.12152388563153829,-0.0876081219638651,-0.03376872731951517,0.1718904377143042,-0.023965245115246902,0.2309981321069096,0.2945694741346089,0.2736390674639179,0.099746123218805,0.04426501377012539,-0.046127926371455144,0.00165831856843817,-0.05106845748238624,0.008539932201510522,-0.07263870867317045,-0.040580637070921716,-0.02207612701085472,-0.041590184958808125,0.011978634575344888,0.24558050966267647,0.16554440668887402,0.38371071380758826,0.2751065845817609,0.42133556749103285,0.0948000956277786,0.3413126730355291,0.21232018516825776,0.10680720466509368,0.351900039831076,0.009343110918044273,0.03279912257192811,0.31742690461009365,0.06690811851921241,0.16731132925004596,0.1981772910472851,0.2357795376251721,0.16487981892496467,0.005873302704600042,-0.017361957128534316,-0.056003567495435336,-0.04682643687870443,-0.06119235334324023,0.010769312602664302,-0.05736337797054085,-0.005872651186247919,0.009528888423614025,-0.048182257111582014,-0.38525208921172016,-0.040105356845542985,0.08658139460843048,0.02518440694110698,0.3381206282507164,0.43899021916209313,0.17082911107175378,0.11940179900074477,0.11980461478151341,-0.0375102824722689,0.09918278233621582,0.5682990606382665,0.6562209172026053,0.2000337684250875,0.26188604483569655,0.08436831125415693,0.1476311847339197,0.11105399708425974,0.024478246559323954,-0.041488840381120995,-0.00008675767106695588,-0.030134242931197205,0.03093941270325359,-0.04285699943517866,-0.0034046823187225995,-0.008246714148200766,-0.1387890803671646,0.17678495145130826,0.211237090464968,0.21741052648495623,0.024494121448259142,-0.45848845309754227,-0.2698837684624004,0.5567127695124985,0.1524943666117497,0.11217249269459732,0.1325355389986007,0.2490142068697599,0.04561646154846069,0.0922894273067724,-0.004035159200437912,-0.1442269808922398,0.0387276050138307,-0.036451746684832205,0.011885425308412245,0.0010280938091766793,-0.0777250850508331,-0.03967832718078309,0.026444538743742554,0.0367946009164172,0.02819902541324204,0.0069750342343232,-0.10087669841340924,-0.056986668600605424,-0.278497908868668,-0.2214846284224482,0.16076997386323613,0.1555054781814615,0.36816239645702076,0.06429223151403933,-0.22115006618154706,-0.248347702344293,-0.05033928885507604,-0.14557975011614543,-0.17752004533855692,-0.22273956443198736,-0.24772870783061388,-0.042381535620598536,-0.06432144563592908,-0.008777142264039728,-0.1089102701746297,0.052070402305165436,0.006557841945903836,0.02491120011191545,-0.02752051914952879,0.018620795191426412,0.01708600999989612,0.0013654618097782296,0.018624628129474876,-0.0293846024433906,-0.008922720308683001,0.04008064900546299,0.06176427560446993,0.0211393257387035,0.10284462245753627,-0.05278980770152352,-0.055064030314788175,-0.006301708385537045,0.018686039080769132,-0.06210568407581813,0.006849541619007766,-0.027581202938536973,0.036315254366403836,0.019543921136852636,0.02009166215819596,-0.1270907643379284,0.013413579809445308,0.004578490234998651,-0.08189201100829613,0.04745689735454738,-0.016192464720094623,0.0992618752811681,-0.0782884364281496,-0.014024020682003036,-0.024868100381873554],[0.04783726610877572,-0.01868073340917645,0.03023162605099764,-0.03294749379204913,-0.08427603339663552,0.022975749978960194,-0.05465625766757172,0.060202221640080184,-0.06034098787275746,0.0022872219170229366,0.05674984321276474,0.019765555978991933,-0.053614845209304304,-0.03026268201206959,0.04220801028980395,0.03005669205993892,-0.08269708160390898,-0.060766128998974725,0.05420505256759809,0.13783135730251717,-0.04523278878615637,-0.03511465147961127,-0.10887701141722805,-0.05236310737673017,-0.0015315585410880697,-0.06056663535338233,-0.07229231578081613,-0.05290003450704416,0.011022083964195269,0.037871846992486836,0.07408853234507419,0.02665515269874065,0.04514747930021296,-0.02322191825404635,-0.005503494731570585,0.0805090631018261,0.05988315148931669,-0.0007137165677120991,-0.11118610926779564,0.06580862289279159,-0.0672442183038008,0.01437910153902796,-0.09592630188922432,-0.0014151534220975689,-0.04640485079217191,0.002416249593069179,-0.02082617172099793,-0.00802133459803203,-0.034955690412597086,-0.03920570138928421,0.03208612619511585,-0.04555432480740901,0.022931311192780017,-0.008997193704363598,-0.0005676016742235596,-0.0101729752626244,0.00613668841658838,0.004876782931164329,0.028212973530022178,0.009840372456860348,-0.014903995703349543,-0.009851852364554475,-0.06639796346500122,-0.055376256482595775,0.0037105422344116262,-0.0036967025129850725,0.09199465051250068,0.05172335435545659,0.021543437664393608,0.12744048262395008,0.09163206503889812,0.08849049448648008,0.1325238555842137,0.09682309517104505,0.10190148363460999,-0.05476133376915473,0.05357734033681226,-0.07365409383251251,-0.0563418742609819,0.05409797469730482,-0.08487627244784661,0.08116081731199576,0.06600903593642486,0.07540612560848052,-0.13641528859958738,-0.006371276403767075,0.05593806380717612,0.008461758721629303,0.06403123884380856,0.134069632434518,-0.015609645398770907,-0.017169351390233865,-0.009023316004445612,0.2617770791454049,0.2302710946825814,0.08401430185726645,0.34619334179219835,0.2673801898159638,0.1767651407861193,0.1772366286739162,0.3070461359712746,0.2044856936539035,0.10861195798954522,0.09670931457170155,-0.1380400717860154,-0.08227847011556735,0.006218013605514021,-0.03939385442773678,-0.0563735682645779,0.001763328930801963,0.08941534584846379,0.03086763551405434,-0.021237873265957437,0.04655299577614104,-0.02384835065488722,0.053905455054347656,-0.0005460597730501158,0.025498895949029557,0.10428311467665824,0.17766587508807744,-0.007857231956859242,0.11745390558209205,0.07383042453277117,0.1469851069073641,0.251232505169605,0.12052381995434588,0.015178243002375864,0.32210456723389946,0.6073422044447739,0.5035991524112716,0.505977027994447,0.4266929550900888,0.3714714131256883,0.0014115641936402361,0.11466051824355983,-0.07617234141851417,-0.0921654383016122,-0.054217238819467904,-0.02204793916985067,-0.0457905534662669,-0.01262316584933814,0.07551172004370275,-0.1180929897286385,-0.01641728759965297,-0.016825370014979458,0.13730385157525452,0.182946115258881,-0.004966195192508665,0.10562466977759317,0.24848557344445807,0.08982465770240249,0.12954976881435668,0.14729132207832324,-0.05736516212227562,-0.0941540976917954,-0.18902516353022442,0.10166476891854931,-0.16367160586456417,0.15050159279135988,0.12927108638870188,0.016631815858377027,0.06450153228740639,0.14734482386015121,-0.22178661178903475,-0.12287590503097846,-0.0902609903756176,0.04326895937676574,-0.009389371890845549,0.07441021967950665,0.0341705330084999,-0.03941821129511571,-0.11327374469390974,0.012181054775545192,-0.0001191024658773012,0.05500471443160055,0.04182510453794708,-0.16950303655700338,-0.11703180965881188,-0.07228262488149463,0.15728274821723098,0.23968356536185106,0.0028114041432301105,-0.04852885045861852,-0.06422720574121571,0.4872677673885065,0.10434268938130264,0.14659510659556654,0.08095355511846862,0.025808090227177,-0.02591994345874918,0.156827174073911,-0.2564932867662218,-0.17885758174481378,-0.05781247143907132,0.02793561921149478,-0.06589854947580599,-0.07381372621790022,-0.017075660637621986,0.1013724226924409,-0.13850812317636202,0.0084403421743842,-0.08485794930379952,-0.24479742023549317,-0.15817776788098606,-0.11292656670086319,-0.17823441339393772,0.05010073155900654,0.2482395267754077,0.0349867811941966,-0.01794912322781961,-0.05887257769913283,0.07627137565288702,0.3886485337374342,0.2525583115832538,0.2214690295978483,0.17026243251613885,-0.07936695650784681,0.25744087848172514,0.4134097547810594,0.042667186744732064,-0.15638820840444206,0.04596833817720197,0.006353287602079711,-0.008343820067971465,0.046107689476557905,0.027193272936770183,0.06106366332314484,-0.0297949480455742,-0.11648398466002341,-0.024350186035884454,-0.17920663353677188,-0.16527862367254814,-0.08536193479401984,0.038384888944421845,0.09234442334253047,0.07518426549211783,-0.001548340029300705,-0.46567174830059893,-0.5213265925195628,0.12579498680735252,0.26867595306927766,0.41741968619133374,-0.14576724604569055,0.047065689364622645,-0.18815806063183654,-0.06611651415031174,0.41269809889314596,0.11182916930749551,-0.14142524436669068,-0.18135418423021357,-0.05609053175055341,0.027817958766823487,0.022737962694077872,-0.010782714182352096,0.03589758427891554,-0.017082134055207,-0.11068789037496612,0.0011099364380293161,-0.14329372614593464,-0.14804678088940712,-0.38913892999907224,-0.15210801653407025,-0.22196751337089668,-0.263748770838443,-0.04464733962807987,-0.7165465684375562,-0.7844220265739401,-0.14114108802754302,0.3914399327152753,0.181671459900271,-0.02221350400579757,-0.22544006273589315,-0.38475560558942934,-0.12783483781182778,0.022935242429634004,-0.351422584106219,-0.2918682234979056,-0.04250934684242068,-0.016443824815996592,0.05464183920163938,0.09665990155288001,0.0732831480135062,-0.017572149471566222,-0.011320777557112003,-0.13872224353551213,-0.15849581989935563,-0.18472452199065165,-0.16487192537144701,-0.2337259335973564,-0.31880594412934893,-0.5672446469866865,-0.34204987827614824,-0.41056365837734815,-0.6423761339570361,-0.98642868520774,-0.3970717932644591,0.11301600172285801,0.4051656800791117,-0.03365771847062462,-0.08076673140731852,-0.09903694726199612,-0.01758711842941574,-0.2584058826678911,-0.423958493161666,0.1484125096182224,0.053732376593369394,-0.028494834369491084,0.021335202349633594,0.07589910424337579,-0.042131802834503664,-0.0014574176447146039,0.09923434368667354,0.02199758279242823,-0.05727101950017235,-0.2844079620237228,-0.3213384636458395,-0.36613866491551444,-0.387242155969512,-0.5149539757147391,-0.4302209329973447,-0.5376543951396724,-0.486413089143291,-0.7988036589562881,-0.3563414533669297,0.2276004047527037,0.2829422768528421,-0.1648915002492827,0.06161895365782135,0.03699711563870383,-0.24258408918842383,-0.30906356263357265,-0.2223278910816576,-0.06112449557982221,-0.03228215441099418,0.07495744454990134,-0.008730451780697038,-0.030953039510225492,0.022688948830174638,0.04206193830652808,0.019039251924896358,-0.17482696951304016,-0.21352649972507015,-0.3590622438079479,-0.30859531776290594,-0.2547237609651292,-0.3426366378874178,-0.271329974375378,-0.260064073762108,-0.270157024115585,-0.5928528767658972,-0.38763936393461057,-0.21623648825544042,0.08673355690107241,0.06749285450866745,0.1257715500962959,-0.09043136475856992,-0.14114566202789053,-0.3831951080143356,-0.2213736793747051,-0.075885980455263,-0.045967345168481125,-0.0635312721789909,-0.016332540321331915,0.1068404138719383,0.01482023649269502,-0.0628242725483747,0.0262106850704026,0.020711442114922908,-0.02463639727435183,-0.2635116674922368,-0.34118591650839386,-0.3725235969518533,-0.7088321727938666,-0.5229816157413125,-0.1342126279946232,-0.27734462874265975,-0.2740371036655958,-0.16420038755664676,-0.12165867056911732,0.07612267431058979,-0.10638691026566258,0.12216341099323519,0.1756205315251363,-0.07257583514784494,-0.37077544020246556,-0.3974739504846252,-0.3569086474150902,-0.11232293722606367,-0.020909977169462274,-0.004194919175495633,-0.05653541026576789,0.039186899902376435,0.09144639888631213,0.012709778103922627,0.022557921114334852,-0.03713766165208023,-0.10653932677167535,-0.25122652707179505,-0.2818666685215801,-0.15702474114537218,-0.28410246240088277,-0.08583039252895339,-0.32488527710240744,-0.10656642747529392,-0.11879172149737635,-0.6405018108149724,-0.2492558084392775,-0.36444489174176686,-0.37042101083929246,-0.24497808175684688,-0.06368374068367645,-0.13474913330750415,-0.4661963189372199,-0.3524095895961637,-0.21389095322945864,-0.2790481098239722,0.07014488489556814,-0.07879545623377575,-0.0021608793747105465,0.06043943938841111,0.010102116075361416,0.09828818700535528,0.04537064955473576,-0.034306853309559224,-0.14403127609594124,-0.425745678354597,-0.29326216969968394,-0.06779730985591681,0.2987787391467796,0.4660990018689428,0.26236092053798743,0.38855726236369964,0.0209792640875009,0.07247411216565891,-0.20512008019206457,-0.14388596786653088,-0.3168860316439184,0.010987964663488224,-0.18569389166225542,-0.3892952855150343,-0.6973131892680287,-0.27854445648758935,-0.403841980746465,-0.10547785859785498,-0.006486148445145879,0.08633776370982972,0.0053546649228540235,-0.02878187229364358,-0.004631523583909014,-0.01175900294041407,-0.09955325838523517,0.0025679551341961653,-0.11484452536197101,-0.18069992482589992,-0.08379832338966815,-0.04294707268247289,0.16675419202379826,0.43681222156761496,0.3547053826594045,0.4965406609195505,0.4771639564048432,0.14634927563333067,0.06379926004873727,-0.2691087011115185,-0.17873260142160158,-0.30145524066543783,-0.6397974098719773,-0.6920609356321344,-0.6734749215456234,-0.3388092284508533,-0.29222833026120476,-0.138810708116177,0.01812225249253161,0.08625118692591519,-0.00672261045927994,-0.012832454408866446,0.07458894651961705,-0.015197974825291652,0.06770255232965766,0.08690868215877239,-0.03863884882250481,-0.1198134851364729,0.14377963852298567,-0.033189333524704386,0.06034689406009951,0.15410502320338465,0.4983889949890045,0.8198203794469626,0.39278093644341705,0.08138715854234534,-0.16780152885333538,-0.2823088167354023,-0.2641571206333732,-0.6050993653499681,-0.5260873639564134,-0.7085313748727492,-0.6193096155492667,-0.4110390963336427,-0.421118512248364,-0.13996797346440615,-0.026622789233393784,0.1373164860216867,0.06081416878408453,-0.008625725744816628,0.03101170009453185,0.007056718951972199,0.017199192256434622,-0.05787484207228857,0.11597181333045951,0.019100483221327434,0.09968240546915283,0.1945500159369356,0.4331565254618586,0.46705850618971717,0.6603652002650322,0.688673048863995,0.472444175093666,-0.2471398583794088,-0.5647474216852949,-0.6550325579411156,-0.179781361181375,0.012232733185600447,0.07486049586601061,-0.039192526356212266,0.0376745079321027,0.06330563590932647,0.17010740070338748,0.12349033451614423,0.14774753593394618,0.12792496308956297,0.03660127708235844,0.010130331544952005,0.05206145615399587,0.12930353465876013,0.024636480230256278,0.0917215030129525,0.1469292135640008,-0.10962347012516883,0.06600761762572295,0.3688810271364121,0.4417292144743124,0.7062993136272083,1.1018613345642068,0.9426785487120874,0.37277631776158077,-0.15713029157280037,-0.580414975764964,-0.6624143616528207,-0.18915976253463948,0.19999920585743486,0.16243780744155498,0.11058507990136052,0.34529827798368345,0.26143192897546963,0.3971573210578862,0.3233847540849091,0.18151012528476443,0.07292338782502081,0.09240655195508429,-0.02408151848521223,0.02789905327897785,-0.08139413623807006,0.021200552202970926,-0.028197950893136654,0.24743220849809808,-0.022686647362219054,0.10628111438758861,0.35040191899875417,0.3747077937944818,0.4875066402759081,0.8893428827249511,0.7549924788145712,0.19239048837858302,-0.30148046169065756,-0.5952902941300603,-0.16669835680396075,0.2615106845968813,0.5645696601306218,0.321581955080867,0.4039049279798809,0.2693762345349855,0.3246062592095118,0.2783526695491177,0.34813825154591843,0.009290130891455396,0.05166600221402633,0.04789525408009469,0.01187205476657601,0.06859500800764168,-0.0471451841910482,-0.015989043261930794,-0.011917125077674208,-0.011447001722383181,0.14686289691187343,-0.006126147756420205,-0.1249238576902191,0.15443492103474243,0.46534649183465454,0.3893687568094955,0.3794176982175242,-0.07825713326236863,-0.6053898765033898,-0.3459115204348273,-0.07997134322601933,0.18550732430748465,0.20273014619895494,0.20612309905038603,0.22210917710463898,0.3547039017683233,0.2922253262465956,0.1819641351137197,0.22151073521210796,0.1707299418732338,-0.010290719813046143,0.033921010455873264,0.04719401216526906,0.031988808096377636,-0.05827378895193857,0.11180449393356738,-0.032996340126984935,-0.14020975508690392,0.19063943360860094,-0.09801160477965377,-0.0073671239550037815,0.12350465323197068,-0.004365496836088688,-0.07177992065389593,-0.20466164042489848,-0.49447700491176266,-0.46635873174031184,-0.18991201770749688,-0.18611056676825166,-0.12386741750577096,0.13440085452509712,0.06556274891604359,0.12197505268539408,0.03801911923752638,0.2450171239302753,0.15074659105438673,0.021814250160304426,0.03614372707989074,0.0312563776232257,-0.0826563229066319,0.005639564008255898,-0.06711800407397989,-0.00749940026765904,-0.0005379658823853126,-0.15448274400420134,-0.16077241743706966,0.07707272207042713,0.24248758736008857,0.11437671713369292,-0.3206653959496216,-0.3266502928135436,-0.2616206630572824,-0.2479773229552508,-0.3284516561933929,-0.19517307729256778,-0.3510762095105512,-0.28717174875724083,-0.2243076517724419,-0.1930974959632717,-0.08485743045254283,0.06513887388158536,0.14290394475531876,0.11621177393217227,0.13170511646594804,0.05505585757282645,0.08255562657818612,-0.035510062805599665,-0.008811041024860964,0.10326939471273243,0.007714727031310686,0.05979348019517631,-0.04730997011093596,-0.023894998502194155,0.03212361374937923,0.0711108830721614,0.05551044820847542,-0.1574663160176725,-0.37968699270629835,-0.41913477942928967,-0.43402903890702016,-0.22029239648881818,0.12155252503180543,0.06783211604876944,-0.08912907785174615,-0.13403642566669935,-0.17036114132931734,-0.11698946774779076,-0.027706526719321767,-0.0012189506535532951,0.2066130735124139,-0.04368909204805433,-0.09789445108546058,-0.086640993778292,0.012014475797354986,0.005723887865287286,0.04722132218821888,-0.009221274300970597,-0.0843738449603757,0.03460312379077484,-0.033679867402165234,-0.07594566153587848,0.049456065143376186,0.1322204194345347,-0.004085255861300172,0.0946075109045284,0.1175710328722747,0.10999049749282386,0.10257799083749906,0.04453486724554968,0.20762538273245693,0.21492800131813353,-0.009902857321215328,-0.09635980501038187,-0.09125360051920786,-0.04463868459613425,-0.10740066792743214,-0.02838638507448651,-0.0007599048221709984,0.02234771132173772,0.13508916172641328,-0.05132431411248971,-0.056332189045999445,-0.0049468547911900645,0.009561135437208943,-0.022211636203179203,0.029407551958361977,-0.05344559423581854,0.011272885594504501,0.033148785100467766,0.0057692663191996245,-0.05049963697708809,0.013178950758348745,-0.11391831521351552,-0.03616528332055349,0.057815056864423814,0.035092842445906484,0.07913562463769126,0.025265092960173666,0.015359033702765404,-0.06159809292432516,0.05846797391535589,-0.0941298519818181,-0.06848875600296321,-0.056407771007409374,0.01991693571386174,0.12663248996896861,0.06536422958185308,0.042089582268965,-0.015869238334357057,-0.05509463088575315,-0.04074563870615633,-0.04203917181666299,0.04752170845767285,0.011032600162192695,0.007841779712767578,-0.06611926300327936,0.14323288125860548,0.06339105053288384,-0.14381304870339626,-0.009488800300569698,-0.008744890201421393,-0.06436820989363048,-0.06617451254827231,-0.09561198165382177,0.09558470842770456,0.0067783716896130065,-0.021033079918378036,0.03952109962254417,-0.045500503200682885,-0.00955106228867534,0.04114480245857427,0.11031811854232734,-0.027452061233865913,-0.005032878473389401,0.05844825140268144,-0.06528593674238149,-0.021531778755931257,-0.04907706164495606,-0.06775296296643003,0.08506713248712698,-0.00922804401313073],[0.05061408647504404,0.034246301552259224,-0.0164672192755381,0.0475843912396975,-0.010366163894051622,0.0761414751493388,-0.017028599921119363,-0.05012023006661764,-0.033656574447123284,0.01174594189041273,0.05046002842938742,0.07189347471355861,0.054182716203970076,0.01764626984875136,0.010276174779652996,-0.046024132945087275,0.01089198520094562,0.06591240658217809,-0.04536721316616462,0.008009343319539066,-0.06968682351448378,0.0390633439156019,0.04197122557417208,-0.03555210572580649,-0.030753414174726424,0.015392991857368503,0.07857753209463327,-0.05719171625070955,-0.043822949080791616,0.038135408116696794,-0.08888412005667837,-0.033802599468596095,0.038656897727929164,0.0073919034028989625,-0.0356124801435622,-0.07580669956738216,0.029055424425781722,-0.010012179724660761,0.007077036144556226,-0.029689034465518606,-0.04415542928677151,-0.0501969165392748,0.03553081025659284,0.04317056823211712,-0.11733845334944443,-0.052405140208317845,-0.0007132609665581007,-0.15209093117013017,0.003164207728544955,-0.12716606173155473,-0.005804915718644806,-0.02648549596159721,0.06333644611120691,-0.01756532117058842,0.11227201229337663,-0.09467413666872834,0.002340807282924913,-0.062044264038674704,0.048296335077157325,-0.04951932613947037,-0.05495479761393366,-0.05391541952670878,-0.05604346901337695,-0.012548508036118624,-0.0742864192766436,0.1397187346513781,0.15786578100372653,0.07670526214042608,0.06323600034654833,0.022219609278583095,-0.014777193106793743,-0.09220051668503819,-0.08278420415119336,-0.004898968818309687,0.019351812518029636,-0.17346114399119178,-0.02989021365225926,-0.06286388617215936,-0.042423944058381215,-0.10443230867490566,-0.0563945721085711,-0.012069681079518751,0.0407308711654645,-0.002508789110418903,0.04022335457127248,-0.009763709201689626,0.05002525121428918,0.06825050897123179,-0.049325981483029614,0.07089509157729575,-0.012328640686056705,-0.018891352364763733,0.18760826136569037,0.4387433894829183,0.33746172655419987,0.31627973362699746,0.23486764651628678,-0.08692809625343235,-0.19870624915613372,-0.2618353085026618,0.11479008509045487,-0.008687975844529863,-0.28542413035291425,-0.3734600921182239,-0.29828034503802275,-0.18132223210572723,-0.060672941280574474,-0.10952425982415273,0.06364727367250816,0.031212845319967954,0.11347443836911612,0.03813766738342902,0.09280633314331695,-0.0015505940557603935,0.03637021370885443,-0.012965105591295397,-0.029091561410146478,0.052441582228958984,0.1202674842960774,0.21036709914481644,0.257835653087981,0.3670645933087829,0.5015599944848284,0.4775561974524957,0.572324029316744,0.3592340995992004,-0.007482216231476565,-0.04812429662387009,0.0480700135476127,0.08706705371514616,-0.006687093655977828,-0.2819060208940287,-0.12653577333845026,-0.14350077337122472,0.004369463604277063,-0.11609869603028357,-0.020427607770724023,0.002436891757948187,0.010312507943889961,0.04473948279029914,-0.05196987845538624,-0.023673163686531166,-0.0014309641681198883,-0.004430449935848062,-0.03872823712717447,0.04040282464154285,0.12874704832877684,0.22510646240328264,0.1917942800658415,-0.13600779838428512,0.18357581131345307,0.23568608649883585,0.24476251367336938,0.2539625032642082,0.6907980411858974,0.31350351715508423,0.1462732362217011,-0.050551241371782185,0.14638613671943754,0.23763283026312348,-0.034536604664899065,0.19602025061116232,0.07284525943417118,-0.10512938395455927,-0.17204983961635395,-0.14434206596367455,0.007545053113246617,-0.0866326809628339,0.017594714223350377,0.058880793757109126,0.025193378713763485,0.1416080112849881,0.08464820373033685,0.08386363326340367,0.0943477953303886,-0.03827072279143501,-0.4044998001789228,-0.6057872623236265,-0.43510227019028785,-0.42951741872199767,-0.2917882792970461,0.08050361142114112,-0.2000494846576786,0.1010946754657098,-0.014719569375232833,-0.08689583334325457,-0.022055131582457928,0.02914911837061211,-0.2758276700524287,-0.11281046088181054,-0.07915464617504411,-0.2865490840753956,-0.3090751998825517,-0.052187912847287396,0.02462667586675796,-0.023624832124290226,-0.05570076754466847,-0.0545186304078125,0.027934689330423385,-0.02279793677387472,0.04744164515370396,0.1224777488748927,0.205504186549821,-0.17409317538090918,-0.45793303906676824,-0.44482512794573753,-0.41498566186202673,-0.449965483675497,-0.425503937749101,-0.3061928439736997,-0.08533704323699341,0.06633902806950677,-0.11068157724411044,-0.07949690790842169,-0.7002978159470137,-0.2047060448179258,-0.4077918645919225,0.07695236714186521,0.14472272619626084,-0.39985813390799835,-0.000345217174146112,-0.03143622409864771,0.029353083667424784,0.05059385908305439,0.0571827701892914,0.020964462804654426,-0.03257340668469028,-0.027626387403476043,0.010736578673381314,0.1387930085096377,-0.04621422306908669,-0.27046079947039464,-0.6206607864918159,-0.2671803393114494,-0.34105487098933424,-0.37556189808774004,-0.6138453151393529,0.025358825686398113,0.00014170694544911704,0.28756423489691146,0.23062546816000318,-0.03013283310571015,-0.17400832188212603,-0.00857568237992938,-0.1561511354644483,0.22864410001903515,0.02138901025076181,-0.08747902219169423,-0.02173422369738636,-0.06113178544932388,0.08484445864885298,0.031040548808768144,0.02065292514843338,0.008885669011478557,-0.05833978344114589,0.04368901734827361,-0.22425418529349078,-0.11475563322792331,-0.44007880228556706,-0.526846961602069,-1.0102235966854003,-0.6315597253884734,-0.4402375210498222,-0.6612752710507949,-0.03199726797634566,0.1380779012993583,-0.3832129771158573,-0.17823607122900628,0.2872819798372031,0.02257784853081259,-0.3091179707768458,-0.13724831222661962,0.18144866702710216,0.2188869065031431,0.20865076062625687,-0.3322597790327392,-0.04864718631769956,0.03012174680271208,-0.07067769267455908,0.0001624577021126904,0.006022481328230632,0.04547507957786316,-0.07834603725101445,-0.07072930662022629,-0.18035501310320803,-0.216222467358934,-0.3788291347662085,-0.45614382677813375,-0.6988789476702522,-0.7048704173586492,-0.9469165154297541,-0.2869155586876191,-0.3824672742234915,-0.4747903851785159,-0.6306995472696644,-0.5627413950892857,0.06876635485048639,0.3540267214844745,0.06826558493105514,0.3427903628252446,-0.12785818898861592,0.35203574451674313,0.06662177724316327,-0.3876794294590199,-0.0633527067643921,-0.004436198645965526,0.06523559492770901,-0.03211855361378919,0.02936115029912596,-0.01887238387053493,-0.049415054069115755,-0.15696061120346075,-0.20072476261739142,-0.30351800860628525,-0.2799934503971919,-0.4416002862968885,-0.2855334135097597,-0.6942247558501183,-0.5230529536813399,-0.6015347876337241,-0.6295739924257414,-0.360488007690122,-0.7939990595056504,-0.758784001456247,0.15611524446910197,-0.14884276593258466,0.01426940312277468,0.2681843730541695,-0.27365220975401955,-0.10996201733211176,-0.12054210895158529,-0.22773984190916519,-0.01623918417220491,0.0026775591821405855,-0.03111038584204434,0.021151264206096802,0.04975221742852321,0.06461726585264288,-0.08162793821129319,-0.09550018350938896,-0.36954711257576217,-0.34401130441077576,-0.0834908555437491,-0.43343795517245803,-0.28512467508687117,-0.45668600045474855,0.36471593590381407,0.15351610601418736,0.327681725120968,-0.19112814021964358,-0.41349687573024335,-0.8633634252020451,-0.022081415527165783,-0.7796693720294459,-0.22628638834194573,-0.19882970214487206,-0.278170065058061,-0.3095743555114136,0.09152999967341059,-0.2548889761513655,0.009929956208209523,0.06605409835980092,-0.0020533784206820766,-0.0711376049600648,-0.009287741685520795,-0.062364660323604694,0.06675343343562483,0.146136636691975,-0.2170608399006381,-0.21064906911835038,0.3159773228864272,-0.05756517106632907,0.04894142298345101,-0.19524640927698733,0.09226227561959097,0.7309687637760316,0.4984015439455037,0.16526077299643085,-0.4316860185798403,-0.1426849416338879,-0.26008147556150707,-0.6536178631091152,-0.3065466518563619,-0.16825143798657075,-0.26465990679259127,-0.2694370938692898,-0.14855367130287417,-0.14471128322023208,0.29014162090227497,0.19782428635354976,0.0003202190910202134,0.05782957588478816,0.03983445248214982,0.012139161019450713,-0.052294537358142636,0.1624747414332272,-0.031004798790684417,0.3083709852191153,0.4839814743099056,0.5175887080857003,0.6849384568404294,0.7786961888990908,0.28951664161731294,0.27780006555711917,0.7761239590642935,0.645964907213201,0.3334579092071288,0.09121214549693138,0.035879040761292676,0.09573753229491856,-0.17471459969891145,0.2324202010271221,-0.3749690108884685,-0.45134394246964915,-0.3395329350726464,-0.031007502669863816,0.21332537987357225,0.1512582266866853,0.06744799413560175,-0.07926056099069811,0.0561493915335017,0.0036324525781353005,-0.025084107250317022,0.2632713917203885,0.2573871875346375,0.49577592519068414,0.4146763045442652,0.6453057890126538,0.5243754283941392,0.5663391469477324,0.050352605282855165,0.07999469794629245,0.4839009494884344,0.5334504820289129,0.19845804841130185,0.4340772612504223,0.42474483048871137,0.2693727146110674,0.1307878105962063,0.48126691994073756,0.032986306118165214,-0.08414166140136622,0.02346469069396545,0.06880684337561792,0.21481147780857882,0.23062016293247956,0.24100726075284132,0.026703017130838766,0.030508197802516786,-0.03713761125466228,-0.04998978703729933,0.22608213180019515,0.4433057883987398,0.2057712720511182,0.08582530912656848,0.3984962452852619,0.382320950703769,0.22272757994535747,-0.31455626719688035,-0.4453593870924409,0.06994889545579468,-0.15915205567519108,0.18039808988447703,0.5628616974996019,0.6418186393988594,0.4930365649475726,0.4409651061075232,0.5744250558666453,0.345362698121441,0.642208527126743,0.1262695219481792,0.031938595651987846,0.15681403645081884,0.17663151738280325,0.23951545392072832,0.06377893705629341,0.09132850164455546,-0.003166369991081226,0.004533792742062015,0.2500647988106828,0.601142934772874,0.2764650069964823,0.09820435406932361,-0.21903169283790283,0.24003268647988413,0.05449597433037764,0.029434670998200973,0.11081119533846269,-0.43529902351726757,-0.20698049261413654,0.23937408324884898,0.48006453177918457,0.5981989755328238,0.10442145768316988,0.1816441816393686,-0.22017854669362527,0.12833246292715708,0.4708752933031069,0.10211222267631222,-0.05662005553276533,-0.11020358167738942,0.11148254056370269,0.010016010373860889,-0.029789412003114666,-0.034928967202791254,-0.04068191590767375,0.0507311599330427,0.34786992817828494,0.4738258716856263,-0.028166562244160784,-0.04146660775046757,0.005421512197699901,0.33445398305498103,0.11918583578680697,0.19596266086689035,-0.3081229450998937,-0.3569940680201466,-0.09820275213179223,0.3563113931218304,0.07071914726478558,0.516147112323041,0.2576938439419855,0.14788784188661055,0.4306398148271234,0.3402652036530046,-0.00751716947688317,0.270003193786311,0.06398053582710689,0.1395893815707535,0.01914197152070239,-0.06565895803628535,0.10743357908720852,0.022593884455641575,-0.005114066536314255,-0.011572916543908938,0.3166756348807561,0.464873227292654,0.06655089009255191,-0.08758429123447663,-0.05677372174960248,-0.17305931162428034,-0.36268962803712335,-0.18891956972915167,-0.2539205720556429,-0.5149678762647939,-0.28618061003332984,0.3126578761423364,0.4667358902995079,0.6481389933135502,0.19562879248656165,0.07171798920596086,-0.05259146722620505,0.03290896736835957,0.07144165533438186,0.16859116265023785,0.19104717917061279,0.09233525034228662,-0.10064879317579269,-0.015718551341866085,-0.02593838273051496,-0.022021463336523554,-0.05254264524156292,0.0053501263236828195,0.10217171579363016,0.23024668716810034,0.10002126526660342,-0.11297942026746953,0.4327508322929837,0.17841393958263865,-0.30117122096211657,-0.20131660942008947,-0.02506432826453212,-0.31504935858012645,-0.5180112212114029,-0.3790469680356881,-0.17803764053052143,0.053367991245665485,-0.16543400036158082,-0.09310485150360623,-0.15754338438805382,-0.11101652639087951,-0.07775756683586861,0.10306375550637474,-0.21168198087415466,-0.16387091904995335,-0.15573649385742303,0.07105658713859844,0.00989400985290022,-0.11676259808523791,0.03522685758079192,0.042824813729715416,0.08046682652256866,0.040279836800394334,-0.12121733259096386,-0.25711029300248356,-0.15623290005462354,-0.012051037422925038,-0.06257848030504881,0.05724976377229865,0.0512227318234293,-0.2249952494573468,-0.46280418977135335,-0.5001610195644403,-0.39179809842164626,-0.30343659289462893,-0.22408036987048513,-0.24995444050675047,0.08865689198789875,0.09423877539626166,0.32897675991732417,0.18162374419890442,-0.0430052696616804,-0.2534386945074258,0.0030065540274131415,0.009555481862665922,-0.0048301726415909945,-0.04898768824685856,0.027209062900016887,0.014528956484519812,0.08803342758501148,0.09114995763080512,-0.12143510100006104,-0.36353514199635883,-0.2344697697425174,-0.03430180802140343,0.07045781986822666,0.26376477137776233,0.2520952071193621,-0.10850906413491355,-0.20972952106576523,-0.36159092627046796,0.011773403016732178,0.0472684417020749,-0.38398436065562247,-0.2478397033365295,0.05937247643408695,0.12970232793714032,0.32157578841347473,0.01210961868095869,-0.11039608890208658,-0.11078913815752035,-0.15444365570782045,0.00041090832596133066,0.04554815410691174,-0.08755012835352957,-0.0208049466783268,-0.04504857254159881,-0.007607736388954783,0.04897322613225615,-0.02489141726798455,-0.22198604205329692,-0.06427916954024065,-0.06889666042143011,-0.06556175472851523,0.09665626638819595,-0.10685672136905701,-0.2750638861990772,-0.3051589975238458,-0.020296927848964405,-0.19933398379008407,-0.2837295600448654,-0.3373712321546378,0.026313459103942262,-0.10913757340977587,-0.17408156292072882,0.019213767977885463,-0.1848372915310015,-0.13655861713877893,-0.14819682929298375,0.03292076426306883,-0.013559058397842843,-0.00048528804789723154,0.015049110405081279,-0.04969101336458308,-0.025226705105455362,-0.11260736510563145,-0.03361203424138212,-0.08886634752819284,-0.13015343259585418,-0.31247835882840835,-0.5175660513020762,-0.5171942026565763,-0.3813208759489332,-0.0987944022564023,-0.4898317977389049,-0.48688037650956995,-0.41195725216557977,-0.16228468064618615,-0.16029783673218012,-0.1674433434675984,0.17827778826307272,0.06500013497161505,-0.1300353967130719,-0.23112600732787972,-0.31205298118517316,-0.18772532327627686,-0.06652357989550176,-0.058683716741886466,-0.014840954487837437,0.023276323628383968,-0.040148075816271195,0.037268494596051485,-0.05592727653669702,-0.026898151665406534,0.07927882260070075,-0.04055694786572951,-0.08110688827490399,-0.1298240080916765,-0.333801012021722,-0.527755774610336,-0.4446457808971283,-0.20397325228492802,-0.4930549346929677,-0.2747520061784335,-0.3565791558666883,-0.11995696165146019,-0.07256536734126516,-0.1852457679044892,-0.24410299593334508,-0.2287597139737183,-0.31048760545702925,-0.17455534964678507,-0.12445799584865869,-0.0007566090726599816,-0.023582366319793442,-0.00012301159824311425,-0.024905307118103195,0.01529380067153638,-0.031296723969694865,-0.017690205162163585,-0.05812154855898443,0.10162715147891128,-0.005124381908238532,-0.15988676027024207,-0.016181171776684492,-0.11532243427858252,-0.09678076928702639,-0.1687681150476209,-0.11254610817625592,-0.13494328823427423,-0.027188504122224004,-0.08628625133140023,-0.30120130435993414,-0.17937129582372732,-0.25102582486851105,-0.1050681736044429,-0.1945831412323221,-0.1614766590378872,-0.16231457179657113,-0.05567509735366776,-0.06389205839936239,-0.050590070864245065,-0.0767185398872995,-0.07796331931699707,-0.004222520583894429,-0.09573127546151686,0.04717956060503472,-0.040553786599608156,0.037759103306339956,-0.07812081248875187,-0.0513296350192973,0.007944370394833781,-0.011298000753146886,0.020169097265233162,0.04560660939922511,-0.035446931561331496,-0.043045901937691824,-0.03348259537905939,0.015018507968205795,0.02232338943738639,-0.008488711564040784,-0.07519583813081934,0.008751662512740526,-0.0581346210654348,-0.0028940605675115074,-0.04446347739204215,0.006616613325465713,-0.09505895292988295,0.026277868496461056,0.000029083862543780245,-0.030752171132840275,0.008473176572694278,-0.04290550606369885,-0.04754614771241315],[-0.00031531009704883865,0.011615655100099886,0.01809396633437867,0.09202845593082294,0.036524213033639466,0.11494016718109334,0.009578506140688692,0.049072040354109434,0.10626605527789433,0.0016998023884984455,-0.03887163880100877,0.046544899214660304,-0.00655641897434281,0.04464726784336576,-0.03186873786553257,0.019927039968825788,0.007115613110299253,0.0697042012945115,0.029171061869063444,0.02771480248190312,-0.04011798695831292,-0.012299594475146289,-0.037579172484204525,-0.09383697834327545,0.057174941533845766,0.03952652139536713,0.027907121115349723,0.023828415954439533,-0.1150777534559976,0.04947279218436533,0.025076363611148823,-0.007860686330348745,0.027609231727377694,0.039800867429035255,-0.007981452491727803,-0.03526508177613055,-0.08284288211091465,-0.03300616560026638,-0.05420550592173602,0.05356352237130712,-0.007974870657434555,0.046997625885393676,-0.006131935025183412,-0.0374937050679319,0.03624493091843326,-0.025857943107254738,-0.06748865671966726,-0.04355664544660358,-0.018323063027088582,0.02892294515010504,0.08503850774999562,-0.10252559165279693,0.053358989493159696,0.05055073157197992,-0.0004475683595593095,0.06038699915354209,-0.02006295522654567,-0.03932708157934404,0.0609514737377791,0.019506527023750293,0.06018981447525291,0.0018270454512892378,-0.053723856101156035,0.06640653725575305,0.0038088156856550598,0.08551288627897165,0.03883628030899285,0.050239836591633,-0.047540290437213556,0.02560927591522,-0.003580452018744319,0.06073673941003056,0.16958274254757602,0.2594301128838435,0.08685495484546822,0.004727203569050964,0.058879310939231086,0.023654682747069795,-0.00915148610555016,-0.010551552595012835,0.02801959349353192,-0.05101981005153722,-0.01093568747430307,0.0006090465945267851,0.0030344218612513335,0.061779500147873666,-0.0030586277909177974,-0.0914180792218836,0.04072155769009813,0.10409782399231798,0.02176777196660354,-0.09251793296159366,0.03120118106475924,-0.09338786146943816,-0.15707250050370178,-0.22789131228824513,-0.14776098931162032,-0.17810960376356857,0.08236603653696144,0.12051408980699181,0.21464055852539618,0.3202597478632474,0.4800127091704629,0.2389938801746959,0.13795493574279952,-0.06422962168356733,-0.17418162693386927,-0.04801279726787614,-0.049196024703773523,0.018078241153822047,0.019844635058956533,-0.06799337449623803,0.01963031340079051,-0.017727893183817595,-0.029068989636317856,-0.02807588906557695,0.012706140067661674,-0.09426047173573394,-0.09105531187289993,-0.10638424096848596,-0.05102300594161831,-0.14693801750408533,-0.014596740492697772,-0.0009154733581897422,0.05598161412277537,0.17068097249436343,0.47129241423951274,0.3397208747096055,0.27697502370870014,-0.529623523143002,-0.2536131910964636,0.13381312102652287,0.090839981492038,0.1504442595878362,-0.020260082134492395,-0.13968586298648594,0.048665820059508785,-0.0033640652706008627,-0.013825251235084388,0.050618250809326484,0.013322088239661602,0.012405247763485599,-0.02669528395700361,0.020205138925703522,0.025394227767426447,0.023622926748479867,-0.00888500253357341,-0.27107887473535125,-0.48874516422206177,-0.2428009267169076,-0.11092999122569,-0.23220931347304444,-0.1525360866386233,-0.10028909108476113,-0.4053997085055943,-0.10396807019753532,-0.0013971163110193517,-0.1667459843106988,-0.2715051359658154,-0.26032413622455847,0.08948440149318798,-0.07161191989711306,-0.0715836474278726,0.007614510572026496,-0.1237325288078191,-0.021460525941636503,0.04480472066730324,0.05572135210533887,0.07557538021578457,0.02255400091537207,-0.018859544277942616,-0.0018383740278743526,-0.007885722147865294,0.06038378352783236,-0.16600272759560977,-0.26542798106756976,-0.23897579072318434,-0.07894334370718147,-0.29482441953115934,-0.17767174891213144,-0.147807418974258,-0.08253583812541988,0.0027584437717772374,-0.14946251211371014,0.32544700735574633,0.16227236295191408,-0.15086638955763548,-0.11386354929214963,0.01857585962834473,-0.0015152782840837761,0.060870661493349604,0.0726289024679327,0.0019861183682497313,0.002319302280935012,0.03927387768791407,0.03657495562865415,0.008811760688566542,-0.0711110600804234,-0.08750020346499421,-0.00023388844077438503,0.05988313531902292,0.05463884764492356,-0.36267815292157596,-0.42746292249104084,-0.08952945851017988,-0.3967724069463647,-0.4935983327969695,-0.4062098314857872,-0.17294623176089144,0.05143462239549221,0.8838879200730037,0.6577286935776135,0.5464497463264751,0.4112939998605304,0.12659410221254613,-0.13017498001730787,0.08241918354711467,-0.1619064052338224,0.07533702124716715,0.19086926357441736,-0.04491064377480073,0.08660967059335928,-0.05394634687785019,0.012178878307000285,0.04061288521273473,-0.06966866799497376,0.03233194110457724,-0.002264936091200367,0.04409851151832255,0.10172665680581867,-0.1280344655515672,-0.23012598398823786,-0.2816613344217039,-0.24105612053195472,0.060579937647412076,-0.15584920654539816,0.1709801467945154,0.1226235237146608,-0.17194820528609614,0.053560166431211316,0.09764761804496012,-0.06428142791934965,-0.19401233385320912,-0.06403597845549801,-0.057235911830064844,0.22440165625257552,-0.02720632719577942,-0.039785323235831005,-0.007736045022285156,0.058893871156401684,-0.008193445229216986,0.03533759676563459,-0.013316506264554785,0.017407768341822828,-0.014331776823785438,-0.04926274601106962,0.2243798676595177,0.07821642408134236,0.08190167240518254,-0.06572211257708524,0.2990869082696491,0.01799553485814554,0.10013245995863808,0.05055471237149057,-0.1983889587150532,-0.2829983826737705,-0.5482381958264749,-0.4752944996393724,-0.2945969000040798,-0.7981073001717808,-0.23618097981029423,-0.08435597021831401,-0.09679020630309684,0.23286251811979708,0.2034265702303354,0.022834380672543505,0.15496928343440883,0.08144592044775713,0.05233063448081895,0.08387304483966161,0.02267611785832607,0.0297423647458878,-0.008913499950672709,0.07503700835549254,0.4293806263564161,0.1611193257801624,-0.07834703304063356,-0.1472338261289611,-0.039299355917862246,-0.23777228214943727,0.24268620594632523,-0.00830655512297488,-0.05173687829908982,-0.15899457265559103,0.11391435175054744,-0.02737028826645391,-0.22277943331027553,-0.2885722881668265,0.03678485895535075,-0.2734872416050562,-0.13181352540624025,0.0896426195202088,-0.056314070275222214,-0.020046711771417456,0.10196978792975267,0.0725109744535961,-0.07737753221928621,-0.012738264769098144,0.007369609228759496,-0.029714847197507964,-0.05413192657767188,0.14873023519615347,0.2974179520944381,0.06228234635899376,-0.17098731090594524,-0.26335123908414987,-0.1815963309345852,-0.21954659373063662,-0.10615746999549976,-0.5427071878751958,-0.41406608179201504,-0.08501229483146738,0.06586256966442666,0.3627237320923517,0.25403889776287253,0.19427041804385287,0.05352466470333353,-0.3492900326611265,-0.23184930119620278,-0.07302524767897342,-0.27685122686328306,-0.23345914746456278,-0.11296865347396993,-0.07435891551242238,0.06608414422864729,0.022332125653659655,-0.002016946484440998,-0.12163243289399503,0.09088562213455408,0.09950259429066319,0.14827738901011575,-0.12279126615270568,-0.1860965534488231,-0.2896193180378925,-0.3855667236805956,-0.18186460649891778,-0.3283158304683973,-0.2280694362649391,-0.13704608203806076,0.34313506532337845,0.46773203955784814,0.21942497670414532,-0.15833216115970233,0.1831271733422864,-0.13404171596596315,-0.46586151183699037,-0.15982430317258828,-0.18102213217601423,-0.4459238818048791,-0.26630646840146077,-0.26256262506075617,-0.008189381079521644,0.010309448937680488,0.026556098361587076,-0.007763516480065281,0.00011276580421263851,0.012916562386120267,0.045874246633966644,0.20413759245293506,0.0038661497204720385,-0.17175716450020279,-0.3863692686240044,0.0604029063103338,-0.20447356515771156,-0.043808235603601774,-0.02903470333578223,0.28817525544873,0.27310254354604285,0.5183399342126949,0.02647858565304022,0.11576867956059432,-0.0810281867156525,-0.3708521251569336,-0.30150903481443975,0.020951537727389825,-0.06378971288951485,-0.28239704254011117,-0.21723894472172955,-0.03924711838528352,0.026773958386370977,0.01967297790126884,-0.036718632910907864,0.035856929741670165,0.024357264758504932,-0.025194381550546555,-0.013908814075503961,-0.054429884085816414,-0.23767962581212895,-0.49444289503317973,-0.39001691990705223,-0.11783737372921423,-0.11691231524668023,-0.015720567470357293,0.12368363761962575,0.31367781803441985,0.3175539924351075,0.5073857548519844,0.07057793709266481,0.10474956906703316,-0.07710573338175589,-0.19530277005494584,-0.07005494394506989,-0.09564447877273935,-0.2309640223214181,-0.18314919305268354,-0.17194523854202964,-0.11665002298139741,-0.021726125944637974,-0.09799203553188261,0.04104269952784319,-0.007224374202008287,-0.05997337867108638,-0.03190808408761997,0.08375636173192647,-0.2024496960315225,-0.42827014435188654,-0.6965984464316597,-0.7693536974360751,-0.6246499407881102,-0.43443094100035806,-0.514714250114224,0.04094159011335682,0.5606920071368088,0.5606251434350044,0.44457669763637825,0.09185286624076398,0.09403913843335898,0.22853843952142652,0.312966011523707,0.09821950532252936,-0.12841989911644158,-0.29959849036350816,-0.17313264917344726,-0.12555712470580474,-0.14767424090141418,0.07952328390053857,-0.019472822046588328,0.00407941026721793,0.04774256853631674,-0.028692266713668296,0.1453312969986514,-0.08551996113465477,-0.0285122598275001,-0.37814107611446934,-0.9686946288368665,-0.7775723118198558,-1.1383849955177208,-1.0555117074649591,-0.778158133426221,-0.37101464847597715,-0.17221762530099677,-0.22192252206706406,0.09707319428844245,0.05198925355574338,-0.18283282135256324,0.22426101754246633,0.10353454309615949,0.054482930373959876,-0.06441211369497761,-0.19482231162399583,-0.13071575576828431,-0.18052950881176338,-0.11201453691943299,-0.05939309810107775,0.027101270840782014,0.0746981015242038,0.08294210455583186,0.024136609393744637,-0.054091261368665065,0.001660079471506019,-0.180380512179313,-0.48257214278121974,-0.5506320883270022,-0.6814660775839819,-0.9470471197189677,-1.2496857151001608,-1.509809098908292,-1.0686804901336218,-1.0048088714237526,-0.777958881546661,-0.319412037880262,-0.14490873096036036,0.17540382618110792,0.19200958572099594,-0.19984871037954768,0.003269853196774903,-0.16923433998648343,-0.2093781087151546,-0.2008048265450238,-0.2777529452322246,-0.12882885477530504,-0.07192705480184437,-0.0038159286229925535,0.07827159434133084,0.052404676753611185,0.0623233926064563,0.09691737793184416,0.18880014388986993,0.13809536009290932,-0.03857111101651364,0.3247876779838402,-0.173374277745691,-0.3535694810597738,-0.754698896693357,-1.0440514589079832,-1.0125166113750614,-0.7833169048137394,-0.20986033949384408,0.12476169360733431,-0.1003050181110424,0.1533671077749695,0.10869902041082602,-0.0393702787390616,-0.0004759894358148581,-0.24738729882647129,-0.3219276510562736,-0.18539201316125226,-0.31777202732329024,-0.06262416074213382,0.06362153996519788,0.060987771485171295,-0.06261164072339634,0.0073455165858022,0.008939424511395339,0.01370983887491179,0.08477611848446585,0.09418734671910288,0.4494425827350158,0.6924715396358069,0.3610738811269908,0.06960425806006341,-0.3272471027446508,-0.6212152372927158,-0.9784540192168915,-0.7696817403692353,0.000055724667971509035,0.22319699349314825,0.0983689620941941,0.02286961757599611,-0.24117388525913863,-0.0411663829289866,-0.19779968748180354,-0.04706912802637484,-0.2798225437820501,-0.1138548813268905,-0.12788392585793618,0.03912631322230265,0.03768559703752586,0.004936261901853455,0.08801425097313395,-0.07604449066490136,0.06136109629895818,-0.1286581586082693,-0.016008278699898723,0.14883715758922866,0.4814253141381234,0.591616412203829,0.48549650375274317,0.4912298437443568,0.3895777674664536,0.13525961613572773,-0.20653915975917903,-0.24648058853002075,-0.0829336875522089,0.038441070609637334,-0.1128195773595679,-0.0026570681775576295,-0.2313053249445544,0.2860519043374004,0.10975515667441785,-0.13299916951054866,-0.1873655831284743,0.14622406391585138,-0.01725831082106785,-0.03834405554557109,0.009864015964220861,0.09387335957017315,-0.10066948061177515,0.060219547649207096,-0.0004039040846955206,-0.10913625139567838,0.14530034323265664,0.22065070949918547,0.1981470216158002,0.494031549130335,1.0870834354878045,0.6731428019354676,0.4693045356507035,0.41091923237334954,0.602361417761659,0.31359012686703996,-0.06384629428076126,-0.09487592893315672,-0.15243470782440569,-0.1940981636615988,-0.11349525685809979,-0.10140484568856084,-0.1514727667836215,0.01672342755476085,-0.16434071685867754,-0.14639721867175573,-0.02784611753024685,-0.00821556033971026,-0.09352484390611318,-0.009255375886202896,0.0624352633889707,0.032876751748869726,0.09033027964612994,0.017499012029654024,-0.0697679484658728,0.2682338952009947,0.19544162739289953,-0.0010634958328845636,-0.07317676893582802,0.04233282200898418,-0.28692986265356424,0.10098751340284604,0.28818239884497104,0.19591751975632882,0.061240055863082524,0.10651747248424528,0.02821457216081499,-0.2988373565265267,-0.43191240424966826,-0.5285308244126699,-0.25047742013719626,0.04543589279854045,-0.19995808680111052,-0.10078378737273297,-0.0898464808576356,0.05716222293295418,-0.0015860768941947869,0.013888473323415054,0.02980593334676024,0.03316458111364002,0.0437485085847312,0.04096594846346219,0.09119282762025818,0.22998544054947742,0.09580866232568014,-0.1110871007991594,-0.1684763096162374,-0.0440093658655211,0.06693977683807495,0.3047116356003498,0.19665100776464098,0.12548178968499113,0.059843224869885164,-0.397790176100521,-0.25233034226559503,-0.4667811281652451,-0.518966403094607,-0.3443925360511763,-0.1500551409136404,0.0034434826561489606,-0.0767254679200334,-0.09203127144357069,-0.03125555392248336,0.10394254441823247,0.0613361598545967,-0.03357810234611557,-0.02243314509684903,-0.06986076959707739,0.0011229014025615292,0.030063221287456487,0.021571199567344657,0.03883845318510006,0.05832165714422885,0.26299131945187115,0.4501703906404485,0.1368747467991267,0.18688055567454936,-0.008022819941730925,-0.1761122367714039,-0.3076627046879656,-0.40344590333684044,-0.7830557024575501,-0.644725657468472,-0.5692794934234616,-0.39488385703997514,-0.366838396932005,-0.17428427839678412,-0.062402332190199195,-0.03636649414379492,-0.004318750815270327,-0.030213176172647318,-0.052400274496128114,0.1315135268780068,0.038789874347629656,0.06673009671193435,-0.062457420532721096,0.006241850354199022,0.002483570611623895,0.01324506725845886,-0.04606831337495561,0.2199131390600002,0.2731710950441227,0.1027456775281004,0.07506493108086805,0.02676805020400561,0.031684220097317445,-0.05565937750710709,-0.17465853206764093,0.10484585636158333,-0.09630474163261149,-0.2138643100954216,0.013896993649472035,-0.1693440039181549,-0.010784740514823124,-0.004947413276468658,-0.014034735465802,-0.04113686319027149,-0.011967041897599076,0.0033981923514322192,-0.05287943994221507,-0.044791966400010125,-0.06841136839814581,-0.036469733844289066,0.0166950284750458,-0.04697033399401751,-0.030352656102575485,0.04983797894232837,0.053822353461429676,0.22814601414231328,0.06054515879670098,0.054739108126828834,-0.07590394827359837,0.004422744131208414,0.03674748818255432,0.027312664394774144,0.06646455927434448,0.011587989039789935,0.2735537450604494,0.12462435734976729,0.1153452819335168,-0.0041722830563266245,0.07026954146531175,0.08333879917456506,-0.01725701952883522,0.0004799611393720679,-0.0012633053720541476,0.05087880119197865,-0.061394738667142894,0.018659385525113068,-0.02735203814657411,0.07745087257529067,0.0005168488893566636,0.053345778188233606,-0.1079337880020181,0.00502353883264516,-0.0030298714269838658,-0.06808719755653948,0.040310890726690744,0.09914881760083649,-0.01799695903538708,-0.02334470772597456,-0.04114725065399667,-0.0696614902627848,-0.028511027312667452,0.04263800888987601,0.06012347071638338,0.11132015909254042,-0.024973143555539205,-0.01417140631700627,0.08217068638319881,0.009496985152928383,-0.03194478149052959,0.08677695610205537,-0.007355692641738022,0.017972114920012088,0.057755199058987745,-0.03562309501003483,-0.11175639581879794,-0.04282759261763895],[-0.1542280626823124,-0.015190347900029565,-0.035038855912257756,0.06876292690921008,0.10539482197343747,0.023462243231335132,0.017521566372454736,-0.016591488604159835,0.03461978960208874,-0.03420851919942014,-0.10849220016782199,-0.006019304206813988,0.045539485522750466,-0.02930768141634301,0.01396289801487873,0.08432300128715318,0.06899345142880858,-0.06483369113001136,0.02994607910824369,-0.016569188039799173,-0.021167047174184665,-0.03327737743047476,-0.06533593425133324,-0.047084926037865626,-0.015013289770130942,-0.09202049140691142,-0.034886604788595614,0.13094683603197005,-0.040958903135669474,0.024816489505772876,-0.015067464268031709,0.011129740875672896,-0.0654794325031199,-0.031787138493007856,-0.04458192921412527,0.005268620473317061,0.01805186027788451,-0.027382886253450114,-0.022811146843813083,-0.001180468691732333,-0.07054493706998216,-0.017955285200029904,-0.022705013123422296,-0.21336134191166453,-0.1104176433160744,-0.09854774794825781,0.025859727226433094,-0.08712904569278844,-0.03001411390824505,-0.07827148468309106,0.0779029023143015,-0.027120771256193936,0.036016199146092345,0.022962447135490293,-0.012564184904640573,0.016124924736468527,0.05087388283444828,0.039734192761146384,-0.017155442439793743,-0.020942432337755217,0.06498821100132995,0.02673442774959993,-0.06521834210919346,-0.02436475134404771,0.005296269894641805,0.00196516746043534,0.008955326798251239,-0.07838310787024699,-0.13636372875009634,-0.2106918451266361,-0.24894749057783983,-0.19785626875462767,-0.07434091874212433,-0.16684060929977865,-0.038452092388354835,0.0807323360551734,-0.11037236773916882,-0.04881005117830807,-0.054286871591083634,-0.07464683088307449,0.07562468134227869,0.02659960851227448,-0.1573781668234718,0.057249923444141655,0.02199331864939968,0.056170418108430396,0.014656201757606563,-0.06993979522652051,-0.030459156191651012,0.017570753507632875,-0.08363536283069797,-0.1614459051228252,-0.11127068653043054,-0.14440159850405068,-0.09655706850539757,-0.03275806036925177,-0.2783886653228486,-0.4581703947711754,-0.36437536097306183,0.09247267256604132,0.0410537862524657,0.21563577818691657,0.37533281868250906,0.21143145422559556,0.16932183557732225,0.04586322126961307,0.00002353142615316785,0.011435794211744829,-0.07128087333331051,0.013610957934393625,0.05010047939288528,-0.025840229906651697,0.03193542691549515,-0.008412466306789474,-0.004987334682287481,-0.03280680141270368,0.015028666485173639,-0.03203949615888279,-0.2514341474831015,-0.17397035413277553,-0.23058310840091936,-0.18688762648276896,-0.06931114378089524,-0.0335318056152383,-0.2708001753468278,-0.13727882176921413,-0.07402740140764254,0.14441841203595954,0.02629244266107933,0.04645811829588182,-0.11587348649987757,-0.1828367256707313,-0.1575670432650225,0.25355479733056946,0.3843378303013463,0.41805522645053217,0.15681812515590116,-0.03626816313163282,-0.070032194822724,-0.01416053790833333,-0.07366100604523511,0.04407250571980404,0.02449138993796172,0.05079668050521218,-0.09061623341678626,-0.14573331317029076,-0.11197112825454263,-0.2513389486235324,-0.3433206051531965,-0.3549138386631759,-0.36211440326056754,-0.04002564435427519,-0.023643451629065493,-0.3733006011406679,-0.16743596237712463,-0.07292966527162753,-0.17138104854943045,-0.12361169235554623,-0.35815829263461163,-0.44910069027406463,-0.09626905428651648,0.044493459872977766,