{
  "weights": {
    "convWeights": [
      [
        [
          -0.852980988855563,
          0.26915314634676013,
          -0.516859863026347,
          -2.1978775950867164
        ],
        [
          -0.9599145053649947,
          1.5040384664153534,
          0.08740366992075986,
          -1.1333952787758952
        ],
        [
          -0.7265172619177445,
          2.8396683808968612,
          1.8628748294649167,
          -0.027825661421996595
        ],
        [
          0.0073844871292766115,
          1.0663345244224027,
          0.03577320099231311,
          -0.649812309981626
        ]
      ],
      [
        [
          0.5837730597590552,
          0.21630620169014503,
          0.6293227687545798,
          0.2926913335268282
        ],
        [
          0.5422236180052279,
          0.17299555820492118,
          0.15508419331592416,
          0.16246701890033965
        ],
        [
          0.9236924510113738,
          0.7844628157081908,
          0.7232787150665879,
          0.5632641174751014
        ],
        [
          0.357741886077212,
          0.0744163806857423,
          0.6133460801139613,
          0.21840187622300022
        ]
      ]
    ],
    "denseWeights": [
      {
        "layerIndex": 0,
        "weights": [
          [
            0.06996926817942012,
            -0.0799839240166783,
            -0.08386327455623521,
            0.07713240580728357,
            0.03659991082986845,
            -0.03324686293715552,
            -0.22732243580811698,
            -0.1071839234526454,
            -0.024461553103191494,
            -0.048976759841071776,
            -0.03792799889483934,
            0.059739928725475615,
            0.0441915969529611,
            -0.07934817631634367,
            -0.24323320892650557,
            0.11170642123819066,
            0.06609943469087953,
            -0.20662599737125273,
            -0.10006497390077464,
            0.10708408873844516,
            -0.0767250853702488,
            0.24688379413680187,
            0.12906861848985846,
            -0.07076804298839359,
            -0.09002565876947384,
            -0.054823819944622945,
            -0.15251344169607786,
            -0.12250873772820008,
            -0.42605663761541174,
            -0.29033078634735465,
            -0.21287452061652917,
            -0.24848853513931426,
            -0.1601411891489683,
            0.022883212332858997,
            0.11407164283354669,
            -0.06687200322349522,
            -0.14005486528057756,
            0.019783500450493315,
            0.07070347066812227,
            -0.34682514176741913,
            -0.2927444028646805,
            0.008318924747707544,
            -0.1676094909641239,
            -0.058524222244210375,
            -0.01913235147379901,
            -0.019223692115461023,
            0.203557392954357,
            0.06980911449218384,
            0.03486695469654593,
            0.025003132842836517,
            0.2856784760130218,
            0.0950952187763457,
            0.4192857135516786,
            -0.1353620514125352,
            -0.3808647397610961,
            0.07198581678259725,
            0.03589290563638344,
            0.13627248341421902,
            0.09412443702353616,
            0.10774261813659682,
            0.0065075709853247106,
            0.05029118599948484,
            0.2196473512467896,
            0.28467126820344496,
            -0.07436272872167052,
            -0.47460416990401627,
            -0.3048218168097181,
            -0.031279903914942106,
            -0.15424768016408738,
            0.329256239807033,
            -0.009994596805995922,
            0.020058846052638767,
            -0.06022342549810398,
            -0.3442930463354889,
            -0.32095913127477266,
            -0.3379607731289838,
            -0.376502366623967,
            -0.17184668766934777,
            0.505988834154399,
            -0.34294156185991875,
            0.12494998377593385,
            -0.01070806452052863,
            -0.06211879247139375,
            -0.03456010335745069,
            -0.0326652808845459,
            -0.23939388287627938,
            -0.3866106498969042,
            -0.454192601671711,
            -0.17452460447903617,
            0.25648104324637416,
            0.2772878337290468,
            -0.042138400941623855,
            0.14370796454816,
            -0.0019340709902543626,
            -0.1692828070467523,
            0.03022666780058897,
            0.0012885674830497341,
            0.04343357889037313,
            -0.1714516588164183,
            -0.023370296475482315,
            -0.34097678058908715,
            0.1983628962020805,
            0.12126084750416417,
            0.0013678011593039367,
            0.015100900581968118,
            -0.27074992266603043,
            -0.19698355836099232,
            -0.023775427107894338,
            0.06539195606050537,
            0.10726219476965071,
            -0.2514514647411385,
            -0.32045169779536625,
            0.32009720393433577,
            0.026245854918974673,
            0.11135906621583956,
            0.2743948290164113,
            0.2921841495301163,
            0.28423249107543563,
            0.12019348978487024,
            0.3588108522705667,
            0.17618090561270375,
            0.11497548498298364,
            0.0023451164257998042,
            -0.015916311105870124,
            -0.062043149411805214,
            0.24836000869868555,
            0.16315778490459176,
            0.20217086034891052,
            0.6289796050223033,
            0.2710807931044901,
            0.2062911914688805,
            0.1681531743025462,
            0.061922353065500126,
            -0.10748512388191996,
            -0.16149575545226486,
            0.08358105426667972,
            -0.1362150232799076,
            0.12650404734207873,
            0.06194368330275935,
            -0.0483513863383506,
            0.1994036794615535,
            0.054338503404457776,
            0.11467505736051309,
            0.04112227083706,
            0.015592255772427182,
            0.21049629221011684,
            0.0278810796139032,
            0.07517665149911666,
            0.12208956294434362,
            -0.02457125769564686,
            -0.055808140658968004,
            -0.1245598735919984,
            0.0956341459441984,
            -0.06132586011724232,
            0.09980170910398826,
            0.0378783583910862,
            -0.029156963096446997,
            -0.09083842214459915,
            -0.06612363032083579,
            -0.09874887110595176,
            0.051690023267378926,
            -0.044334619728399124,
            -0.03506870396378932,
            -0.25863732186618554,
            0.02808117942219875,
            0.10858095766193149,
            0.18232958176181033,
            -0.011905045111924738,
            -0.0016244340611501465,
            -0.106446796535985,
            -0.05648934743750318,
            -0.20040708708918245,
            -0.29149403214527597,
            -0.3347130394160809,
            -0.04390333511213798,
            -0.1641535669630994,
            -0.36741627908081204,
            -0.14113964852772393,
            -0.06414356569425606,
            -0.07622118625593448,
            -0.04756904690511862,
            -0.04449629827441714,
            0.14069718625635005,
            -0.12006765085182093,
            -0.1304219798521729,
            0.1652573203465658,
            0.19617770985649954,
            -0.25813306380058276,
            -0.21910519767675327,
            0.047493322339575934,
            -0.03504613076436983,
            0.0941636867873744,
            -0.027519168564008083,
            0.08291458255432121,
            0.14699408972011532,
            0.38298158835426654,
            0.24861946630893786,
            -0.005771808629552245,
            -0.13221038949606753,
            -0.059259595020679276,
            -0.15952249282177663,
            -0.2163227396391966,
            0.1830290231901583,
            0.10521894607167123,
            0.021623363440846744,
            0.03072447740515287,
            0.1732300869408037,
            0.2305796988891988,
            -0.150091084093999,
            -0.47199896782991985,
            -0.3959426983914405,
            -0.22974910664895762,
            -0.10107547519650169,
            0.01924109329759141,
            0.06010452171981148,
            -0.095804960044437,
            -0.09458586426261066,
            -0.35889919468470455,
            -0.21333499305148795,
            -0.5106849866861405,
            -0.808201004356138,
            -0.0994532073186092,
            0.11686707591420036,
            0.15765471739291115,
            -0.32777394968428913,
            -0.17632813602428576,
            0.10720361668749252,
            -0.1341732546320948,
            -0.09564843552845514,
            -0.23994213610425635,
            -0.5522403800616043,
            -0.7427584891414417,
            -0.3879473682130521,
            0.34567245874320907,
            0.6330171056309309,
            -0.08299771591167104,
            -0.22732085617527187,
            -0.13252004151032037,
            -0.1242521785231403,
            -0.05029459965576213,
            0.03548254530754641,
            -0.11133833767739452,
            0.012189968742730855,
            -0.08297306728428987,
            0.005579952162462158,
            0.48578881516716405,
            0.6027532842587303,
            -0.15820578887099515,
            -0.15324860107140215,
            0.015784473635197,
            -0.1068331760571194,
            -0.06173064731158943,
            0.06068067865245618,
            0.17227104525487322,
            0.16019736648232047,
            0.26647095852314023,
            0.34705147171362144,
            0.2625591903350434,
            0.2277620183275132,
            0.0967438073665839,
            0.12059877852423186,
            0.2685975634547518,
            -0.0581280441093255,
            0.27393928595365663,
            0.04450843084856972,
            -0.036490514886494824,
            0.049075619982342944,
            0.27240137349388055,
            0.474886814693923,
            0.47863249064984575,
            0.48786987427253065,
            0.4325565316543873,
            0.2933012213393235,
            0.24727860832670964,
            0.14693688846110783,
            0.3453763952808526,
            0.08416446302589749,
            -0.14345814526044418,
            -0.19163151897279915,
            -0.12207272011851383,
            -0.14157526397426343,
            0.1438497298097018,
            0.28710120108762355,
            -0.011659002092588945,
            0.1453974534658709,
            0.04121984384938972,
            0.17990776289641594,
            0.19403223565606767
          ],
          [
            0.03999485184464382,
            0.03061277922136275,
            0.05348305093973295,
            -0.06824645234321389,
            -0.11270380270965624,
            -0.13933943081042033,
            -0.09946681967711002,
            -0.06209254962491693,
            -0.07098026609016853,
            0.17504242287481936,
            -0.013299435397431022,
            0.08762779510794957,
            0.102493106336596,
            0.09607597223175833,
            0.04600708399314201,
            0.22019622971530728,
            0.20085269022852079,
            -0.18337932423648756,
            -0.0921447385430905,
            -0.1395517836630732,
            0.136561966877854,
            0.33071717563456804,
            0.1973741207327123,
            0.05904788999622084,
            -0.06709862573998066,
            0.08871638789695649,
            0.3362218606117904,
            0.1857043381667708,
            -0.01167538709104529,
            0.3603923607168446,
            0.016047932832259276,
            -0.7776931872181897,
            0.2673661655317881,
            0.4524687786462326,
            -0.060355599508197647,
            -0.12055660624183895,
            0.15133388491098648,
            0.16713122157678764,
            0.05494541494655405,
            -0.11489738532308265,
            -0.43586316984354345,
            0.2354435343254897,
            -0.19716599400618973,
            -0.6060644333955884,
            0.4140698044855344,
            0.3321457460441374,
            0.011427992774468092,
            -0.29360637526709576,
            0.10121047304369157,
            0.010295874229918334,
            -0.18585009303805375,
            -0.18658015198886393,
            0.014721485770622128,
            0.21082029561428234,
            0.09939967045234105,
            -0.21601152272861707,
            0.3105251397546826,
            -0.11622108966037949,
            -0.09909777255821554,
            -0.053996118602449426,
            0.058266962910705225,
            -0.06357698507206677,
            -0.42956006755970955,
            -0.18924346275913065,
            0.16287634659849606,
            0.510507009152946,
            -0.2205571468932965,
            -0.28012136509835395,
            0.20656738214352213,
            -0.4587271247333199,
            -0.2681256569763508,
            -0.09467487616669067,
            0.11899651314015844,
            0.0758915661789617,
            -0.12407244268994566,
            0.022437524707811293,
            -0.19260337320566376,
            -0.30292810123436376,
            0.011958104471991401,
            0.262166729633021,
            0.3719112294013431,
            0.19979646760611727,
            0.017366577171189175,
            -0.1071470956126813,
            0.17763792392000366,
            0.0991806119896504,
            -0.1700977302811289,
            -0.10566442385349141,
            -0.3409126083912563,
            -0.06866147787117818,
            0.05592765258183161,
            -0.17657707892039667,
            -0.09718833537764363,
            0.0039993180037829175,
            0.16332258603131264,
            -0.144029450945174,
            0.13895790055455784,
            0.08460784485192363,
            -0.039905949272711065,
            -0.0889678346236126,
            0.048259432901797926,
            -0.21061212101228383,
            -0.004207481718001434,
            -0.10654194401615392,
            0.07418060506723151,
            -0.03320433239510222,
            0.16524464493848823,
            -0.12349087939748482,
            0.017192415669578315,
            0.13234205112123204,
            0.0473142994894308,
            -0.010426603153460178,
            -0.052835556922578006,
            -0.11251703680635021,
            0.0706650751486449,
            -0.0804928615244682,
            0.028652845910168458,
            0.25336449949858986,
            0.14730074895359682,
            -0.14420004838039713,
            0.04428114721472005,
            -0.03112624401317339,
            -0.07200484371462351,
            -0.09838959135659087,
            -0.15623981301656376,
            -0.04322731420925504,
            0.1070230994298211,
            0.24073382782869945,
            -0.2758617580657149,
            -0.0877445792320391,
            0.0596662957365329,
            -0.12324682956707117,
            -0.00532940745729269,
            -0.02795013269600867,
            -0.1084366008175863,
            -0.004624474592970826,
            -0.022713906683722314,
            -0.09174033001196882,
            -0.07425743267659037,
            0.0069766747178361095,
            -0.20779695513202343,
            -0.17156679823671156,
            -0.14156298544487655,
            -0.07129592328155812,
            -0.009392752475677132,
            -0.01060911520228773,
            0.016366531417891954,
            0.06904240533923509,
            -0.02646367549554809,
            -0.03548551875807777,
            0.04077915002180924,
            -0.08846291769434365,
            0.021008127551027076,
            -0.044250456552889325,
            0.06243048464921673,
            0.015899950036464026,
            0.11578428832315164,
            0.19379090363968565,
            0.0844906676939521,
            0.2065729227714659,
            0.06698954250190782,
            0.04972857595204587,
            -0.14817512710051534,
            -0.22945539923182415,
            0.2398806155894378,
            0.4627883377295835,
            0.14679878413308792,
            0.1999377599497782,
            0.007465124539307133,
            0.11266284176188583,
            0.15310630906564845,
            0.2047308074445317,
            -0.0010628668482269713,
            0.1671678616956842,
            -0.25914069276558466,
            -0.7875193315444337,
            -0.09072801908989368,
            0.4289545377739216,
            0.055501732212090905,
            -0.10074463791066132,
            0.07760252620087417,
            0.12100986143103902,
            -0.0637613966801924,
            -0.06182763049521768,
            -0.2784729152302644,
            -0.24056982000030067,
            -0.6842384027456698,
            -0.6483188219027373,
            0.19250376790564336,
            0.6509258132335146,
            0.12017228477139859,
            -0.24045868544580798,
            -0.03717265553294875,
            -0.07825910314631068,
            -0.30199968074626293,
            -0.309539060027798,
            -0.3288614767964241,
            -0.062013201436811605,
            -0.14355233798750705,
            -0.16126088436910768,
            0.5452759516917832,
            0.445723132690886,
            -0.1977977108921807,
            -0.3409592020370439,
            -0.07880092644909566,
            0.2604474972609685,
            -0.028757651470687918,
            -0.09376631099127287,
            0.1543234356511041,
            0.04753108613326767,
            -0.03834018773769518,
            -0.13186872046006146,
            0.3473249447743316,
            -0.12877944709801198,
            -0.0026236025835138514,
            -0.166360860964095,
            0.1996656889356573,
            0.11258109265687528,
            0.22641087858407533,
            0.052212425584198884,
            0.07764737415048197,
            0.22268941140044968,
            -0.02017576371450068,
            0.23155392299218075,
            0.166931755304377,
            -0.06318495739306401,
            0.00323709503914824,
            0.023390317802963006,
            0.07687259897308864,
            0.040751226799497386,
            0.1628207148458261,
            0.15892714083183399,
            -0.03549652711218267,
            -0.16195493770132285,
            0.01618868411325581,
            0.14103319684221988,
            0.003013024700854905,
            0.12749076088770916,
            -0.0008672654324636777,
            -0.0520996740466985,
            0.25580969342898274,
            0.050546559801211435,
            0.19929012831796236,
            -0.09405766370882214,
            -0.3497958096532354,
            -0.05970818327194193,
            -0.020813018754292773,
            -0.005073903123185245,
            0.02680559665072409,
            0.24168213754499834,
            -0.011073814201746118,
            -0.3600005462315645,
            0.06630355341755918,
            0.049022129061658946,
            0.04206665377912961,
            0.06516967415629782,
            -0.32009576790326477,
            -0.06473105488309074,
            0.02641652989812706,
            0.08794675214932265,
            0.0364889037140993,
            0.053593042782677444,
            0.23208899153465662,
            -0.08561522068230906,
            0.09368355256700767,
            -0.0513543792516518,
            -0.07758148571091877,
            -0.04510394365365353,
            -0.08295220298848886,
            -0.016445319683252392,
            0.02517431202857265,
            -0.15609879939558421,
            -0.057026301409778365,
            -0.022589156114176223,
            0.019004952270801772,
            -0.13568059005687727,
            0.015524980472821958,
            -0.12930805008073407,
            0.07591086413416814,
            -0.10200190234027635,
            -0.19946278365297115,
            0.006138724779361948,
            -0.052656749874385074,
            -0.21622119752907643,
            -0.19538322261722227,
            -0.3009363200126154,
            -0.3422562384768844,
            -0.2576519256392409
          ],
          [
            -0.0020503885394026976,
            -0.13329562569489012,
            0.060515871025283545,
            -0.019372252821079,
            -0.1802640276582544,
            -0.10266642057870658,
            0.14060276690006931,
            0.016085225331189366,
            -0.09197065864766163,
            0.07942940356357635,
            -0.037500978487192,
            0.08793422808843128,
            -0.07403982669868729,
            0.040587940638571296,
            -0.1260240445303743,
            -0.11228582478611916,
            -0.03358314472918935,
            0.15121880435444315,
            0.1424282709569247,
            -0.039598100512644646,
            0.25383957022780385,
            0.08797910255925108,
            -0.0370487408264058,
            -0.020344331504888215,
            -0.0021862867567485353,
            -0.054913391587915694,
            0.040066373052236766,
            -0.37932979366663594,
            -0.28482555299087736,
            0.011419659087583026,
            0.12647619114222872,
            -0.2710410382242738,
            -0.10254272251599819,
            -0.11744751571278021,
            -0.08970971856783798,
            -0.10217361634186739,
            0.06723656634406314,
            0.047263384224344715,
            0.10179372235532455,
            -0.020531554190090128,
            0.05175341785665266,
            0.037508726068051355,
            0.45772550689624614,
            0.14021880712302875,
            0.025971367048112096,
            -0.0659965840770986,
            -0.16747613913018897,
            0.04587731756493396,
            0.05283553534477038,
            0.10255832253043577,
            -0.11720435888458468,
            0.027354344879504455,
            0.03373947873948388,
            -0.06734119157398932,
            0.4849026217579247,
            0.02280538405521885,
            0.27134244593598905,
            0.304750937919112,
            0.17030405211465785,
            0.3915351517431864,
            -0.007561153365290019,
            -0.1264830189057742,
            0.022222224931344826,
            0.2143407026987496,
            0.21423037201381726,
            0.0489348664981309,
            -0.21192434632714724,
            -0.5271013662462147,
            -0.15623671191804744,
            0.1630422042152523,
            0.1324044988129285,
            0.16484887763621817,
            0.012702578633807428,
            0.00790267651519919,
            -0.16310139300716264,
            0.018856230021183723,
            0.125475701464295,
            -0.2139863585983457,
            -0.13003172212505087,
            -0.46000741692746755,
            -0.3861981911249054,
            -0.26413223580519024,
            -0.02291926109551562,
            -0.1287087800680304,
            0.0682786274979978,
            -0.0659430267533525,
            -0.1392066772641011,
            -0.0703510671784346,
            -0.06863916973711866,
            0.3190020934367199,
            0.21378094842983006,
            -0.24686150564214324,
            -0.07960501001131426,
            -0.3030362085992266,
            -0.010955232661072085,
            -0.10030919167513816,
            -0.10879508844077716,
            -0.0477634623587896,
            -0.02052891308411513,
            -0.05601171074714827,
            -0.3441180651318442,
            0.32188142611015125,
            0.016838030223629084,
            -0.11707469290320914,
            -0.1588734297317436,
            -0.24083886977298308,
            -0.07643972796312813,
            -0.14692495753901963,
            -0.034100290766067166,
            0.003877912256343188,
            -0.04604728826608161,
            0.16948603077416366,
            -0.0698879439808484,
            0.20368384269784934,
            -0.012409115669676283,
            -0.11410453922132223,
            -0.011964128994107858,
            -0.003917897150670988,
            -0.1775012794781085,
            -0.019381269680172834,
            -0.0473672497929828,
            -0.07449055241066722,
            0.008295879517940493,
            0.3037633891440255,
            0.16447953834298706,
            0.17029655696546625,
            0.020395857971738957,
            -0.0510798108794646,
            0.27017889104577375,
            -0.13281453497891102,
            -0.10265145497621771,
            0.10966550948569445,
            -0.039537885204953625,
            -0.0411785469879759,
            -0.09186035901600784,
            0.027990102791785737,
            -0.008719297186673065,
            -0.11710504684403222,
            0.07352403103490578,
            0.032542606732540835,
            0.03214779007471743,
            0.09551757446575293,
            -0.05323359197443036,
            -0.05001434021380604,
            -0.06520078651148427,
            -0.013625302524527568,
            0.07398921306944763,
            -0.05866653128486087,
            0.06810426510185644,
            0.09752082813819496,
            0.023427834433415094,
            0.022258795667021797,
            -0.013201688824459082,
            0.033113071756909085,
            -0.03956083483703302,
            -0.013334429126679833,
            -0.09176946999644388,
            0.028189257312517167,
            -0.13722795012331676,
            -0.06977694010591255,
            -0.05086369515439898,
            0.16622120435326054,
            0.20772009224212043,
            0.06896069890764422,
            -0.02842989911331555,
            0.18988123160310488,
            0.019067548755564396,
            -0.16016466783293698,
            0.003955632297646472,
            0.02223242066917355,
            -0.13181903385112737,
            -0.2430252603482373,
            -0.251627845481589,
            -0.08207139509916828,
            -0.029372674238800137,
            -0.16646408443604127,
            -0.15641313115716682,
            -0.11972263113553301,
            0.020232405431254707,
            0.045129371402815324,
            -0.022060015230022077,
            0.050940347704878965,
            0.08189426540577753,
            -0.0862195425450058,
            -0.09784800452787167,
            0.2698499075305247,
            0.11392850266155168,
            0.06693050419264324,
            -0.18421100819590144,
            -0.22027442653739576,
            -0.19912284005108946,
            -0.010555943855172332,
            0.10563970428852952,
            -0.035084228919115286,
            -0.12199455956095805,
            -0.022414223314484404,
            0.14865028956064733,
            0.309396867379986,
            0.2562455341327307,
            0.018695434009314234,
            0.2576456988624543,
            0.15521570414205532,
            0.03933012826946082,
            0.2251519943487549,
            0.024468488016425326,
            -0.062028915819458484,
            0.05377562549006103,
            0.3219404641114311,
            0.09720296789520871,
            0.16538639138613342,
            -0.12256824825333744,
            -0.5467278302612117,
            -0.06473387617559731,
            0.10036616171447135,
            0.25191674054914404,
            0.0515345974709777,
            -0.0028349206426837486,
            0.04505113326743759,
            -0.027350875132038495,
            0.22825808264877873,
            0.2879775662474952,
            -0.06654091817898432,
            -0.4082791203919989,
            -0.5896723666913181,
            -0.5137760223003195,
            -0.12707530209386866,
            0.020941574169507943,
            -0.09255066775430297,
            -0.07091809401180775,
            -0.1548275070810582,
            -0.17056592697416736,
            -0.06451865256569313,
            -0.11758330970446142,
            -0.11576148107175956,
            0.027551612221764964,
            -0.25330926252224667,
            -0.25403861412650663,
            -0.2272784606224861,
            -0.013894398598549566,
            -0.2417135484156302,
            -0.1029659923455613,
            -0.1817821820734124,
            -0.27538100881184685,
            -0.4649998606687659,
            -0.31851895325076335,
            0.07445006272862828,
            -0.07021437566000856,
            -0.05590497488069112,
            0.06561715249097025,
            -0.25975641635091884,
            -0.12966566460610046,
            -0.2206670628447942,
            -0.11804769599152772,
            -0.16711433364613282,
            -0.06097218075914431,
            -0.23276434789311262,
            -0.206110249937628,
            -0.00593842608511718,
            0.004835256272596502,
            -0.1425794974979616,
            -0.1273360396356015,
            -0.0938214571021458,
            -0.08955326323867961,
            -0.13347328392898083,
            -0.1303117441612138,
            -0.1188394223537866,
            -0.005330008432132529,
            0.3231598395751705,
            0.20780195670685564,
            0.24532093565799798,
            0.12312146102428245,
            -0.014371922222908132,
            0.0981936735455613,
            -0.11469726989591884,
            0.032452999400446395,
            0.06067715077193578,
            0.018891345661758187,
            -0.00906273410345188,
            -0.004097469833065916,
            -0.07813125762333986,
            0.17205101024734243,
            -0.015406914311246592,
            -0.09761903598226407,
            -0.003659282678237246,
            0.011610461104103038,
            -0.04784100090064848,
            -0.09986601438218254,
            -0.1145788786302337
          ],
          [
            0.06200305276517746,
            -0.11118546636298501,
            -0.21501538608611948,
            -0.1051755005466516,
            -0.09949409700293553,
            -0.15536995580361473,
            -0.0855256181429841,
            0.040080963730476406,
            0.16962770597348983,
            -0.00733257509326832,
            -0.10741400514754441,
            0.0395302025213575,
            0.03544992307396244,
            -0.051935139864552005,
            -0.1470624084975212,
            -0.09603271922804885,
            -0.08208151691838834,
            -0.04731376672361139,
            -0.18984481418920776,
            -0.16892170595358766,
            0.17193475991365018,
            -0.1567335181490968,
            -0.10339134083774344,
            0.12248239763350767,
            -0.037652485195976526,
            0.017958462635624933,
            -0.1000959601306679,
            0.024032391592802595,
            0.018110490691301204,
            0.1318060215630848,
            -0.09721248726825607,
            -0.14296374091836575,
            -0.24937850473431034,
            0.03156588709309634,
            -0.15730339307348704,
            0.005396611000238083,
            -0.055363887665016834,
            -0.05105191920075198,
            -0.08462462643438305,
            0.3029912090476026,
            0.06561772934580781,
            -0.17264104670792507,
            -0.04266967666369039,
            0.3276910309240137,
            0.18939356175748176,
            0.40066618976618235,
            0.04332160549732322,
            0.19746571532101842,
            0.06359363173618406,
            -0.00484559103528426,
            -0.03432350607514947,
            -0.001927747901623723,
            -0.1544481507403471,
            0.0682226794697649,
            -0.1777939294412974,
            -0.017165813128555446,
            0.0008703148552045455,
            -0.03415273388715272,
            0.21366888297558034,
            0.27566145343139886,
            0.1280576377421275,
            0.011512847047128126,
            0.03501502721525417,
            0.10384337670037336,
            -0.03142852115841095,
            0.06710804393583453,
            0.2990570820719445,
            -0.05987488359419524,
            -0.40005559370652183,
            -0.31818355086226413,
            -0.28542325700111104,
            -0.06722144382627666,
            0.10751009979761161,
            -0.14153736323974223,
            -0.30345357385497934,
            -0.04993710239636022,
            -0.15988920588845107,
            0.008978284978659386,
            -0.0011506909275335495,
            -0.40497885331271116,
            -0.14388033054126845,
            -0.3670412744373175,
            -0.33297326457948523,
            -0.28881917173107785,
            0.0959434036326992,
            -0.23226006100077837,
            -0.3114563229204649,
            -0.25539444617309276,
            -0.17699463439601787,
            0.0822887136018839,
            -0.2150217932622213,
            0.0940285077869448,
            0.23091224897119444,
            0.1384151445590756,
            -0.5058048699527913,
            -0.5059953634152919,
            0.11930481990149837,
            0.20479177222641884,
            -0.09951334658534258,
            -0.1521343173826,
            -0.16291430624355457,
            0.22660178446880194,
            -0.024353848267750004,
            0.5810055768070266,
            0.3583183185906371,
            0.45374356960718204,
            -0.6329662871251089,
            -0.2728976181854109,
            0.2054622183508675,
            0.19836784284038772,
            0.177409918481532,
            0.19659944311700936,
            0.1472880112239943,
            -0.01350106963167803,
            -0.05526639308070835,
            0.033138589697928884,
            0.3473775103805416,
            -0.09241486183053678,
            -0.22018381444908866,
            -0.0029496894207384767,
            0.0968603503597412,
            0.13242234722060145,
            0.25761060514718365,
            0.10502959837646647,
            0.291346144594631,
            0.23829468349151964,
            0.03527856168446845,
            -0.10424406563453129,
            -0.1398179834467023,
            -0.459765830622586,
            -0.21104988348354922,
            -0.19210732812021458,
            -0.002608363148574205,
            -0.01374576980459602,
            0.21507625739480465,
            0.3512737389275777,
            0.2816575637641982,
            0.4206854981588128,
            -0.28255869958701074,
            -0.30877184168872585,
            -0.11039429768448251,
            -0.05334400339662556,
            -0.06524362934419703,
            0.022860971489561746,
            0.0958531782263446,
            0.05627094741310285,
            -0.049664271797602834,
            -0.0743043231665815,
            -0.09680456713975856,
            -0.03258740695442266,
            -0.09920552427892822,
            0.10806154673912635,
            -0.0015955284902001612,
            -0.09489945570730932,
            0.08786966865719471,
            0.014824428380634577,
            0.0017821532682211435,
            -0.03117976931410666,
            -0.09560298250022249,
            -0.08407632233234345,
            -0.20935721442307575,
            0.08732249549206028,
            0.006806173095707331,
            0.11030004899034358,
            -0.07676000083152057,
            -0.21024996958250294,
            -0.008405948388644922,
            -0.06297131517244198,
            0.11876716298759575,
            -0.07904119435341565,
            -0.2046761398048483,
            -0.08323429036309508,
            -0.002120112397302812,
            -0.000041893598258246606,
            0.0472640438474892,
            0.314967536805801,
            -0.03169907486740087,
            -0.04997522956222317,
            -0.18388606873830668,
            -0.13393297363535162,
            0.024213264913378853,
            -0.13565828641881994,
            -0.1614110768866579,
            0.1310126672547193,
            0.21807378648321463,
            -0.13705771502318762,
            -0.15548638191224942,
            -0.10841170396821717,
            0.09124658697232689,
            0.14589858389627033,
            0.1992126665652387,
            0.16801365196532456,
            -0.14583664835609986,
            -0.12008271551496963,
            0.00936593208836316,
            0.03077349292337412,
            -0.1605764788280774,
            -0.21864679910729123,
            -0.08741598956816538,
            -0.1682728774875292,
            0.012832681883508073,
            -0.09832424405561555,
            0.16999439650313306,
            0.15645031611236965,
            -0.10301166511610993,
            -0.18918142651352604,
            0.06755205074686144,
            0.03636899061962394,
            0.11178012753912148,
            0.07870612090015325,
            0.4658261956659155,
            0.023146848906324725,
            -0.035781770968262294,
            -0.24491799186128005,
            -0.07638837072410636,
            0.13702849253847593,
            -0.015070641121593432,
            -0.23638679881452634,
            -0.081490031265426,
            -0.21807521796776502,
            0.09842276133056135,
            0.44929404783733196,
            0.7791821337632994,
            -0.154976825534513,
            -0.010314531963212121,
            -0.12743700012337505,
            -0.21391743175823547,
            -0.1171519764689725,
            -0.09311060346453476,
            -0.2251072240879086,
            -0.32909100201695435,
            -0.37315388146909817,
            0.030625631710132613,
            0.7792613802587445,
            0.24869272445252869,
            -0.10802545203337834,
            0.24792818311482415,
            0.09680195894511662,
            -0.4374785965069543,
            -0.30924930923511684,
            0.13647680248392727,
            -0.08329650165225244,
            -0.2544108288932196,
            -0.49489671363748455,
            -0.4356126436183892,
            -0.17450151582818388,
            -0.1740666013574614,
            -0.09497106848308288,
            0.48564536217514365,
            0.012654001376960792,
            -0.35345030205720335,
            -0.39956645561099563,
            0.11952970056605815,
            -0.03664269443527741,
            0.15173501683206947,
            -0.1918002310692492,
            -0.4543179514690265,
            -0.5623338191986846,
            -0.4914214033215276,
            0.24561346799764258,
            0.36957948133423274,
            0.17100022894946587,
            -0.3807079416665914,
            -0.3105435318790736,
            0.13421785032037226,
            -0.09799809117807558,
            0.06473416741717723,
            0.07562195616190835,
            -0.08145788343035278,
            0.10918876465526861,
            0.047582806613648804,
            0.34995831634596986,
            -0.04531123572148192,
            -0.37956945704385087,
            -0.4453659469669322,
            -0.09931678860327306,
            -0.015023716838683247,
            0.07441617046612979,
            0.14937728504886524,
            0.25244321726646995,
            0.24167716613807405,
            0.2881339038673293,
            0.17072412304251852,
            -0.086222950844617,
            -0.01869131383007289,
            -0.18326499313511552,
            -0.010234838561211457,
            -0.016802997885079923
          ],
          [
            0.02890801808201365,
            -0.13090083338445718,
            -0.07166985345840159,
            0.17569859590228484,
            0.1405343536450718,
            0.2604581104565622,
            -0.044911592159177054,
            -0.11249820722279122,
            0.006825782801147521,
            -0.013325308663516207,
            0.06674502641739224,
            0.18776679061254936,
            -0.09808074020641204,
            0.0780288727344002,
            0.08761231489109657,
            0.19255846452648456,
            0.30174779720591,
            0.03139496441936007,
            -0.5529513121082171,
            -0.06960328562298732,
            0.2695342752909617,
            0.25604797151953734,
            -0.06564010457616774,
            0.07368824646315944,
            -0.08790406331579115,
            -0.055211875181892155,
            -0.03591576208780199,
            0.003153754656921432,
            0.40727136910616013,
            -0.1824804437478206,
            -0.9003625206393034,
            0.01170156917680063,
            0.20825363899117957,
            0.07466832950717588,
            -0.23183149063019384,
            -0.1308868683472806,
            0.02165278318941344,
            -0.2187219835509693,
            -0.22438638530516952,
            0.3380121783813697,
            0.6075384426390271,
            0.05283053469692834,
            -0.4783231565726624,
            0.18106300317809604,
            0.015360757626457005,
            -0.3131655835592382,
            -0.26402951491555354,
            -0.20991909605529793,
            -0.01634409505387282,
            -0.021074101002669945,
            -0.3779132160335188,
            0.15757002755650812,
            0.11523834345775837,
            -0.024130510909546116,
            -0.5222182696046748,
            0.3196662077190387,
            -0.5237006441235259,
            -0.23615842923033958,
            -0.15472682007316038,
            -0.11513292117077163,
            -0.030845015492518446,
            -0.05108050776482203,
            -0.17805423519976507,
            -0.004334851546741467,
            -0.08186061959318723,
            0.057019635039605464,
            -0.0716114443662526,
            0.21326656700058752,
            0.0032482117209283725,
            -0.09726846382465547,
            0.041337365639792845,
            0.18225648105361086,
            -0.06908424955661004,
            -0.05819556932113771,
            -0.20252154580550225,
            -0.09382663072962831,
            0.30019465023945957,
            0.137958389938347,
            0.42861847939429487,
            0.18524851522336383,
            0.09163841249190012,
            0.4194206190341832,
            0.2925280544626218,
            0.24451182390796677,
            -0.010927387125273297,
            0.06298129457771087,
            0.04040215476714448,
            0.15135996055507622,
            0.22336264769179298,
            0.060420035957098245,
            -0.2511547453496799,
            0.03195178621087911,
            0.18231410521709043,
            0.27347220443616854,
            0.10680825195383839,
            -0.07408754964413962,
            -0.058164533953127526,
            -0.2487542701215245,
            0.09163476409682311,
            0.17203340981662849,
            -0.019243573026550116,
            0.046705982435321036,
            0.26777574645684615,
            -0.14751887069512384,
            -0.18226924533264893,
            -0.5330913341303818,
            -0.17067873191497604,
            -0.05173179563067221,
            0.05626799378463125,
            -0.058853953035331245,
            0.045793615115402884,
            0.005543244845600328,
            -0.18715844982421256,
            0.07569053535858065,
            -0.030449224821054482,
            -0.22980100218508936,
            -0.21765213496077337,
            -0.2866647587723504,
            0.09114753090286187,
            0.08949399482054378,
            0.07319046657075791,
            -0.0361218409882799,
            -0.19844620669875837,
            -0.10598545251288681,
            -0.14220633062388466,
            -0.003789368136959241,
            -0.1345710123622107,
            -0.14172619648552265,
            0.015036303178036102,
            -0.07053042422853105,
            0.01403339151690362,
            -0.07375193171880967,
            -0.06655431945149394,
            0.022159793191768584,
            -0.0852167107380804,
            -0.11759285044940972,
            -0.08248600111760664,
            0.11538591730341377,
            0.14782331419025027,
            0.3624512012174128,
            0.22126588992753501,
            -0.25588220428426073,
            -0.028653866977906037,
            0.14888557485653797,
            -0.01496997818487384,
            0.04674119807106897,
            0.017222038553836146,
            -0.05055240002916234,
            0.257780770498488,
            -0.05641525183237805,
            -0.0697763135768828,
            -0.15445534201267241,
            -0.21415377812973646,
            0.16631493793157598,
            0.04512881488924757,
            0.17063419865204346,
            0.14516199170067978,
            -0.04383282416024888,
            0.07926377757477283,
            0.10407122687909773,
            0.2536317461238045,
            -0.24801150771058678,
            -0.3915606125477263,
            -0.24188437608892596,
            0.23399703953936868,
            0.12556477647989106,
            -0.02102328382197315,
            -0.0043245040305091385,
            0.03328326639236976,
            0.028962112285448777,
            0.10276999437312061,
            0.31663843915193157,
            0.5723580070261001,
            -0.33364605387314783,
            -0.7398324510616061,
            -0.17473139249069594,
            0.21843114106455483,
            0.14777933657418693,
            -0.03444090851867712,
            -0.126757101269559,
            -0.051498666129537615,
            -0.04379934923906072,
            -0.023654537634841,
            0.16724452731551648,
            0.5052349165313091,
            -0.49806284473136087,
            -0.6897980660924704,
            0.29412793554371314,
            0.41060273816618303,
            -0.13212293686627719,
            -0.1581760748504677,
            -0.21172329081556457,
            0.009154809736820953,
            -0.3233601844457813,
            -0.2586105602277195,
            0.04980873632939266,
            0.23056698992468685,
            -0.3098766659843297,
            -0.40637211985329463,
            0.2748557505733548,
            0.15975057438503626,
            -0.4251633147899647,
            -0.2731768256877871,
            -0.21630795994806298,
            -0.1389784341927061,
            0.011302304677763907,
            -0.28111880486321555,
            -0.05480937656427866,
            -0.10350452918470812,
            -0.1606441887638682,
            -0.1633101788766653,
            0.02387786081747922,
            0.026692703307930984,
            -0.1622275231971645,
            0.0192208402685867,
            0.021195182141939776,
            0.09213555267095681,
            -0.2171790039040101,
            -0.29192406466427095,
            0.02209543596406371,
            0.3205861042437405,
            0.3671158731114407,
            0.08781409179492486,
            0.05736156845781775,
            0.09022778837409169,
            0.3317126228935182,
            0.023986808694347595,
            0.2957645351709496,
            0.10336739207600681,
            0.02989661610115763,
            -0.08450402948593352,
            0.1855796629580301,
            0.34733524799915827,
            -0.026836446198241055,
            0.053411437017492264,
            0.157403844928752,
            0.06995583507460688,
            0.3226771669747242,
            0.07493772485280399,
            0.10292580824315234,
            -0.08484118591947927,
            -0.12541853767544026,
            0.10557069418752837,
            0.22436746249777678,
            0.12992785365671528,
            -0.14807858993547707,
            -0.042093180757037656,
            0.07612341585927267,
            -0.3949946217880662,
            -0.26463607187113186,
            -0.03602609534757217,
            0.12507774476191785,
            -0.0987612614045834,
            0.03092753139123099,
            0.09945284276454752,
            0.06713282178890119,
            -0.00933610750020573,
            0.08423733675480548,
            -0.04456664936696035,
            0.034937928077597505,
            -0.3422282430612211,
            -0.36536798685323835,
            -0.1219807863998021,
            0.06876150859993273,
            -0.12545368140936558,
            -0.05092267607375338,
            -0.06218887828835061,
            0.08333588551363487,
            -0.08529222444527934,
            0.004333509975372365,
            -0.0821282506917373,
            -0.08144202367307701,
            -0.06427075166909058,
            -0.12291902379769497,
            -0.19663769652563942,
            -0.12908306929401944,
            -0.049901118581411864,
            -0.11080806495169818,
            -0.12715965328374557,
            -0.20049764461007524,
            -0.24877057227964575,
            -0.02873784783086972,
            0.13136657399433035,
            0.09828409184931926,
            0.05846158748582739,
            -0.03979621899534605,
            0.11042905408306647,
            0.14901252279352573
          ],
          [
            0.0829800164752093,
            0.03387922877390338,
            0.1448878575906078,
            0.3210399142412778,
            0.2608643647437118,
            -0.062463963641324574,
            0.2311473373654469,
            -0.062468555131076964,
            -0.023063656428177565,
            -0.03970153405569518,
            -0.02570837671329784,
            0.07343615020528815,
            -0.18038977545118037,
            0.20456326282052553,
            0.3790062543583923,
            0.4653839798180783,
            -0.025069182586105375,
            -0.13369406249678023,
            -0.12615160171583198,
            0.07116059476580497,
            -0.21014780113585485,
            -0.03371135364503814,
            -0.07805167729076413,
            -0.18606045145380734,
            -0.23044971342298665,
            0.04020928160718031,
            -0.15581281351925427,
            0.24518457493605567,
            -0.1530639964818173,
            -0.3955862507672604,
            -0.3908632502919521,
            -0.22838707450101367,
            -0.4099649047679008,
            -0.19415773192060462,
            -0.2267382385366803,
            -0.2738040155352784,
            0.014872625482169947,
            0.14834022699672658,
            -0.21978223793746918,
            -0.10684352219096292,
            -0.47860457138255064,
            -0.17582767167833427,
            -0.6312624744254404,
            -0.3196216323694785,
            -0.3366865193781149,
            -0.11702247373703771,
            -0.19628826046523662,
            -0.30975837618111973,
            0.1128678443492958,
            0.143581696731436,
            0.13909844018800993,
            0.1335831130323097,
            -0.22363892921583942,
            0.5213394681182474,
            0.11096074251877289,
            0.1238029624488823,
            0.060016788735499524,
            -0.004557601996975367,
            0.00022651348324268842,
            -0.027651948457025326,
            0.04575704748796483,
            0.032340509326235105,
            0.12652036354144394,
            0.2608502875210416,
            0.37706101642144063,
            -0.0696031026272094,
            -0.022067192704709797,
            0.11683878137367919,
            0.07161960976194472,
            0.2983501103190214,
            0.14926675868531,
            0.21607144073719517,
            0.05146952579158867,
            0.10515523504395144,
            0.14311736320957769,
            -0.030158212757817167,
            0.037172584511310086,
            -0.2923048445322278,
            0.03227666525259773,
            -0.00876211886359149,
            -0.3014473801377924,
            0.3251113262538181,
            0.09418639709712873,
            0.06711572733791406,
            0.010447601380341695,
            0.03699524738489524,
            0.030729654439326598,
            -0.043917528983946914,
            0.46756247038914206,
            0.22410440056814565,
            -0.08826439368304448,
            0.04984997453575528,
            0.2342909062758554,
            0.06952387549369378,
            0.08290194640549672,
            -0.017898901007070457,
            0.04593723045694438,
            0.23128212716882152,
            -0.021675475157622793,
            0.030467902329943404,
            0.05049385948125811,
            0.10045763729559547,
            -0.14104538361860902,
            -0.061857679901353955,
            0.01701641945951295,
            -0.4103580512434525,
            -0.15402796307919853,
            -0.21777811811530204,
            -0.001724341455322415,
            -0.04056376778113678,
            0.03947753061533106,
            -0.07734401020765122,
            -0.03421947837616089,
            0.10456219695893743,
            0.2294779653288097,
            0.021229954744747464,
            0.15810525335930026,
            -0.13324020073651194,
            -0.43039098145124405,
            -0.0766082152174899,
            -0.05395505847943881,
            0.12708334449464648,
            -0.0019630512482054965,
            0.1742037328027761,
            0.28793177114355095,
            -0.018681538342722258,
            -0.04739334389178066,
            -0.11685945768787795,
            -0.22711349791839333,
            -0.3745981604029136,
            -0.3170214625005598,
            -0.177375352311591,
            -0.01872928492637364,
            0.0665365251498796,
            -0.057299874634720874,
            -0.20140693093389603,
            -0.18506971450894272,
            -0.24361809078758836,
            -0.10078177511558338,
            0.05884544584150711,
            -0.16753372119329,
            -0.16100349689818177,
            -0.018055973627660895,
            -0.07488867130621409,
            -0.0337023548460791,
            0.11257885939027455,
            0.14214513315803326,
            0.20797744078056954,
            0.15008010311703515,
            0.11487955675019328,
            -0.005186283564924193,
            0.24195703049931477,
            0.16625540278770323,
            0.13152911340860363,
            0.13424355578773534,
            -0.07081515784488769,
            0.08730547144710986,
            0.038889764500178586,
            0.2051315967143848,
            0.17008199187763534,
            0.14867316355788174,
            0.1343703779778899,
            0.03454805690268246,
            0.0917906594787711,
            -0.04802551509616188,
            0.001813135526162489,
            -0.07080940131173376,
            0.04244005467923029,
            0.10023816064890222,
            0.05404836947627238,
            0.17399789856205183,
            0.04540811722257558,
            -0.045697473794142414,
            -0.3815992361464323,
            -0.38927800197096396,
            -0.4201762347310104,
            -0.2907786885383071,
            -0.3574451054037746,
            -0.07071453924609956,
            -0.13399652829627234,
            0.001858767632496321,
            -0.07175086684779776,
            0.042124634729175665,
            -0.2445436805164494,
            -0.49941193045087656,
            -0.5079325853461739,
            -0.44112400304651567,
            -0.4076358343491219,
            -0.09814972699296631,
            -0.2613765588171415,
            -0.127277509759922,
            -0.3698754088585537,
            0.08387358406145115,
            0.027069415091955297,
            -0.0536025352089244,
            -0.004148578539666288,
            0.07207722334002901,
            0.2776735778360359,
            0.19661577285511886,
            0.07937150661226998,
            0.26102524842122654,
            0.17727989325632906,
            0.041920828794878885,
            -0.027208424717493584,
            0.0010752005680267516,
            0.14888325075919248,
            -0.18497371872172005,
            0.10868852025082061,
            0.09192730975206541,
            0.19289399029358897,
            0.5527663037433779,
            0.47428096168921313,
            0.16554057738734732,
            0.23626321335094483,
            0.18920744288202856,
            0.19198613108856544,
            -0.0763320509660876,
            0.0047246869646523785,
            -0.39449014845330727,
            -0.19833068129134898,
            0.02710592753257624,
            -0.14855543354443085,
            0.11603833671765568,
            -0.2753291538641776,
            0.1586868471228926,
            0.27263937801432586,
            0.27479731027348714,
            0.16696648251563678,
            0.0262495284426864,
            0.09518473822432749,
            -0.028458547009284088,
            -0.3318470795374324,
            -0.09043161216106484,
            0.05228702420952531,
            0.10324188764750894,
            -0.27483528723414247,
            0.09064076725824231,
            0.36874146373849137,
            0.09569744465763451,
            -0.13256584876918623,
            0.007211700307857919,
            0.17926994035858868,
            -0.08231484042341242,
            -0.25661495178865956,
            -0.181119532997014,
            0.16686382654119777,
            0.11428030996263354,
            -0.026719881256199778,
            0.0661166122005496,
            0.20851699870727955,
            -0.28720253420977826,
            -0.17576133587351955,
            0.036370618536726365,
            0.1880742166597113,
            0.13282237224576413,
            -0.04183015874523901,
            0.16694442379651028,
            0.33921524556727223,
            0.19695417962062978,
            0.3778796677806336,
            0.18449169374591226,
            -0.02821597983602278,
            -0.24586067919426793,
            -0.16385584360456226,
            -0.17112398695941786,
            -0.03144621414597179,
            -0.05523761639248693,
            0.04405979714176488,
            0.08057468695654062,
            -0.10385978521669732,
            0.12135842683186697,
            0.11265013604992742,
            -0.10126448984746392,
            -0.23040016282808687,
            -0.26739978569365824,
            -0.27484201351966636,
            0.0019341185092294918,
            0.07313142723828059,
            -0.04153362970965787,
            -0.034521570524896114,
            -0.14485516722542016,
            -0.028796699546983794,
            -0.05414266275815486,
            0.04657625780520478,
            -0.17093967968894416,
            -0.1312438233022024,
            -0.13806358184857578,
            -0.05762755899096358
          ],
          [
            -0.024336840938810975,
            -0.06908093504952603,
            0.03525493746649225,
            -0.019810076673585204,
            -0.05750710064901858,
            0.1105718071314664,
            -0.1842988083106126,
            0.053239607186143054,
            0.13537439323577996,
            0.006310962599455281,
            -0.004870692121079235,
            -0.09501670586253656,
            0.045331023102136284,
            0.03653702253060148,
            -0.15590141361341342,
            -0.16292774568684515,
            0.2695088645356273,
            -0.025537327256274542,
            0.005193887031122292,
            0.4412047469920856,
            0.2544033111371085,
            0.35606102159318503,
            0.5167042064741303,
            -0.07488167484916342,
            0.09682434604103118,
            -0.15530194068595815,
            -0.01098317797686837,
            -0.0579851125107729,
            0.11782062257515154,
            0.02819964529243446,
            0.08215477703095242,
            0.1798753832976615,
            0.0284384253181009,
            -0.1841978893793691,
            0.042224983705583495,
            -0.07568861570442274,
            -0.08121682564654382,
            0.005137782379635907,
            0.03490761596167913,
            0.3924695949534926,
            0.11249074083659648,
            -0.08892644214829272,
            -0.5274192905263062,
            -0.378398826274426,
            -0.7107761873556674,
            -0.3035488553255972,
            -0.27455502844351454,
            -0.10476979224558149,
            0.04536466952988886,
            -0.05979702701637927,
            0.11897551288822167,
            0.29064265278332424,
            0.17403147911324438,
            0.0738682631828015,
            0.09723778895529307,
            0.46096406231356724,
            0.26164720017216375,
            -0.10809769047513448,
            -0.3860741382154698,
            -0.16415641346919457,
            0.01542011607847848,
            -0.07070583505330946,
            0.04550096365306911,
            0.0688989230024234,
            0.2608495314621995,
            0.16566492748916928,
            -0.2653077406683183,
            -0.009358173993324123,
            0.05439357384859014,
            -0.03410087496417409,
            -0.11429800594089493,
            -0.01741437576758244,
            -0.025540700331007523,
            -0.13407398773191523,
            -0.13531433896677073,
            -0.20675292302885925,
            0.36534178157571623,
            0.011433033993627129,
            -0.07677755703909703,
            -0.12884433289746985,
            -0.10609003992284001,
            0.09852511810158625,
            -0.2584555745553616,
            -0.0038237482932559235,
            -0.033168733748928286,
            -0.024186161199909222,
            -0.014762859001546186,
            -0.2637821519459811,
            -0.14277895447077182,
            -0.18642305674055346,
            -0.21365312971714917,
            0.06138689479308062,
            0.022386264822131394,
            -0.06180859447043454,
            -0.16181367956684023,
            0.022146232283348073,
            -0.00751581341452348,
            -0.14168107685960604,
            -0.19461233726474164,
            -0.12354341601092514,
            -0.13008890992980274,
            0.09704270197898508,
            -0.24127084019008413,
            -0.0895747438537626,
            0.09153224815756637,
            -0.1420147437569887,
            0.1824582795100379,
            0.19718726858086238,
            0.10961465201463041,
            0.09199195231284765,
            0.1030804138428285,
            0.12728179608618653,
            0.19269878025291295,
            0.04853404197490943,
            0.1731614643815598,
            0.16235739025458984,
            0.24911801592093705,
            0.0740984844774577,
            0.08611011186095335,
            0.16386116604270623,
            -0.01614533789374269,
            0.1395626297988316,
            -0.06962359263705616,
            0.09061769890383876,
            -0.04079204275192683,
            -0.2680953131004829,
            -0.15432659644565658,
            0.09157588245688143,
            -0.11194029826375276,
            -0.1354160762186668,
            -0.014761649846844294,
            0.18108559076673966,
            -0.03825812146711448,
            -0.1578041977444838,
            -0.027303354269219576,
            0.09813695398281555,
            0.009839974291255053,
            -0.08252309826809723,
            -0.16855254803003036,
            -0.008063212410041293,
            -0.03365946180621589,
            0.030611438667750332,
            -0.14895083275828677,
            -0.03742328517297203,
            -0.035194490732206436,
            -0.0022393852866463577,
            0.047028687456880006,
            -0.015707866590499293,
            0.1417002901874936,
            -0.11478015979550982,
            -0.07912120502263655,
            -0.1627949797401714,
            -0.07120875550631695,
            0.18335108680268025,
            0.023748009144848693,
            -0.20802656258049032,
            0.10669131899571509,
            -0.07445964206913062,
            -0.18661852452084024,
            0.03216596448244146,
            0.06680308845177191,
            0.07038962233316558,
            0.04566783192050646,
            0.34237281462582825,
            0.28198125897167914,
            0.2573890849873198,
            0.39576095593913885,
            0.1085609254573856,
            -0.06658624613785426,
            -0.023615514566282306,
            0.15126887938917324,
            -0.025850405832337754,
            0.23293210314977297,
            -0.06635736342714418,
            -0.1157812543881767,
            0.34562519277363646,
            0.2715323244704519,
            -0.03214673112575521,
            0.10632732475071018,
            0.05240240694139598,
            -0.022731257074868946,
            0.02699231357396322,
            0.06645497587216449,
            0.06639374127369431,
            0.43099414231490046,
            -0.1499051687941103,
            -0.5257845000905236,
            -0.23702642529408663,
            -0.4178616813969978,
            -0.40658025862380354,
            -0.2783460160790684,
            -0.11858477759669728,
            -0.12626171396500113,
            0.16076770026017087,
            0.11839553320969005,
            0.21075211946856504,
            0.05430901097790531,
            -0.2975088862686369,
            -0.5866572637241289,
            -0.12492792539893213,
            0.020100100882664656,
            -0.2807222234870332,
            -0.49528352639694373,
            -0.06987335586358774,
            -0.16331806582750963,
            -0.16159736664571683,
            0.10630945624752661,
            0.2288040004200056,
            0.1554678952394032,
            -0.11723906044780873,
            -0.5552900286086174,
            -0.1996340056474281,
            0.14540277099091184,
            0.22971901510399556,
            -0.17860980539204832,
            -0.0746763929675816,
            0.03019125667381127,
            -0.004030992123491501,
            -0.3777882984127594,
            0.12933464032341563,
            0.2952866060454202,
            0.05668846043152334,
            -0.34837502487297994,
            -0.3359709452721236,
            -0.14832663425401557,
            0.17019755176117585,
            0.012839671328309222,
            -0.10436050462415339,
            0.13054932313273204,
            -0.09414173808331362,
            -0.21321826866019722,
            -0.25609514393820365,
            -0.16693644415681086,
            -0.24902123837259652,
            -0.23688865227298123,
            -0.12703801305219437,
            0.19440593817144963,
            0.10675547641702796,
            0.17222496961980338,
            -0.018024050984754885,
            0.052247651272681446,
            -0.09769904020135275,
            -0.3395181009754955,
            -0.16165983041205856,
            -0.012001949924556877,
            -0.0983279638900508,
            -0.32635966299352726,
            -0.07145595942701637,
            0.3458308401630469,
            -0.06979519974400195,
            0.25818589087226745,
            -0.027893120258649887,
            0.014329803504763062,
            0.10887365473737273,
            0.04909912058880738,
            0.08951797169084268,
            0.3066790258767569,
            -0.018470978097637224,
            -0.06232513584319913,
            0.18012797449698367,
            0.017233901098413513,
            0.18576138855507054,
            0.14653443264681915,
            0.28731223242265924,
            -0.07113110923872729,
            -0.0022859602497305063,
            0.03731660691899695,
            0.06796417087463079,
            -0.09960083970989142,
            0.04818995741503275,
            0.020995045221073094,
            0.26633068957844863,
            0.0561905853119379,
            0.07847883530305116,
            -0.017359127259049142,
            0.2006734694346977,
            0.05867829219389919,
            0.11556450225932857,
            0.07457367492406483,
            0.09513516699236578,
            0.030325710140762085,
            -0.24545551944107535,
            -0.05360150511903737,
            0.08353584321988373,
            0.03699371422190817,
            -0.058976824873492484,
            -0.02826713673320484,
            0.039306765421858826
          ],
          [
            0.12952318468812102,
            -0.23104236376652157,
            -0.05159762141070706,
            -0.04761092514601096,
            -0.1307241544108944,
            -0.14280498555400395,
            -0.08037529646564597,
            -0.23158880673578727,
            0.102248085923013,
            0.0028906450006509357,
            -0.04365929122592592,
            -0.08690785341549198,
            -0.028292828758390908,
            -0.03513071684790681,
            -0.06171723196636748,
            0.08407948316923394,
            -0.10745204288424758,
            -0.1958751472288287,
            -0.23222892448424556,
            -0.20744830042285045,
            0.05267703811410377,
            0.22660724492460588,
            0.0493752522382022,
            0.09372140735981704,
            -0.06652139488066516,
            0.05293152720615618,
            -0.04850139218887238,
            -0.1094627424074227,
            -0.19860340493729908,
            0.26131126160386026,
            -0.009572777595401757,
            0.006805950618399476,
            0.08227320003799671,
            -0.028023688822501027,
            -0.08827430134337931,
            -0.06220466592861725,
            -0.0040017004659891366,
            -0.07285107931153312,
            -0.280779480639722,
            -0.13919615043703829,
            -0.15481017471944067,
            0.13104332578808142,
            -0.19477691252770182,
            -0.06028321926096965,
            -0.0012610745181314536,
            -0.04939085549803606,
            0.1352468807761926,
            -0.2334784126743928,
            -0.19007078032806707,
            -0.11185923850838708,
            0.05637591122458404,
            -0.024925892325392465,
            -0.07018312414434505,
            0.2760469086033049,
            -0.20505259443851048,
            -0.26867943072443184,
            0.04767190901323075,
            -0.2242267259128609,
            0.05991038076065655,
            0.05036381482542863,
            -0.0005652731203187399,
            0.09489902183356834,
            -0.07246525527830336,
            -0.06393613825709991,
            0.1625295127080296,
            0.08847666324578783,
            -0.21917456171688546,
            0.03674200282873046,
            0.0815577012643157,
            0.21886084158175556,
            0.3846421893480299,
            -0.21314297251641756,
            0.019355221350970373,
            0.2180179887051111,
            -0.08473498854859113,
            -0.25779483975380957,
            0.08877809008085887,
            0.017096261123072193,
            -0.21617232368005618,
            -0.2777746600076421,
            0.10359429915225359,
            0.1633594269225257,
            0.21490251113589534,
            -0.05974526939369802,
            0.04069293844528841,
            0.12209994108770494,
            0.1674924805783451,
            0.1721838291670875,
            -0.10146692711141168,
            -0.22508154745364548,
            0.09224733563745066,
            -0.3236396987879058,
            0.1898410003047029,
            -0.0935142450135228,
            0.1671063491504295,
            0.07944000567527272,
            -0.12204229537470342,
            -0.1621150448740767,
            0.0030979745390418245,
            0.19559416991574036,
            -0.0922274917011415,
            -0.3473884515888929,
            -0.37923340800251526,
            0.0642220167806387,
            0.27844452692780736,
            0.10514793621087849,
            0.03916150458513111,
            -0.03416428456474556,
            0.011036480273405608,
            -0.3511746178653601,
            0.2107972829486487,
            -0.13604586948694933,
            -0.06360066713302846,
            -0.28452935452386885,
            -0.15561941247265285,
            0.21664766647738037,
            0.35764187142194287,
            -0.23191906869790033,
            0.15347344578096786,
            0.06925552970560384,
            -0.04423818163346733,
            -0.3907179096128268,
            -0.14934664650880794,
            -0.2683036686262932,
            -0.3491660431074693,
            -0.4344443594479749,
            -0.16713782647649383,
            0.1461751406873171,
            0.34710292124231595,
            0.12950216905191025,
            0.38265093422560853,
            -0.11665510366997728,
            0.053967406308292026,
            -0.2034609070341207,
            -0.05167611357990735,
            -0.04651378693805555,
            -0.13579856586728645,
            -0.3278202411883216,
            0.1285744601837273,
            0.4935894089967435,
            0.35645813071123256,
            0.08466237813352982,
            0.2066630385048932,
            -0.04247281553587663,
            -0.009404531067452215,
            -0.11121095778939409,
            -0.16722491837742798,
            -0.03198260653310971,
            -0.16281602209057197,
            -0.2659986130278449,
            -0.2891944724790948,
            -0.1179522562709392,
            -0.21296065932434574,
            -0.09777014704483626,
            0.02145459277873061,
            0.06967413216921192,
            -0.17108735644153789,
            -0.1709717631529428,
            -0.012271598718676554,
            -0.02636874439034829,
            -0.19342368254587247,
            -0.39665352677621324,
            -0.11510467414988096,
            -0.24529675815124313,
            -0.13338432053887256,
            -0.04737892219815011,
            -0.02882572021935605,
            0.19055537775463058,
            -0.05475630777872528,
            -0.015238115673497424,
            0.005277431889274662,
            -0.301297994411697,
            0.06850448161230183,
            0.1416978469709419,
            -0.2881261022573856,
            -0.15657640619793595,
            -0.2660409020732359,
            -0.08122435323773403,
            0.015155940249669582,
            0.04422752627911626,
            -0.04821648776952212,
            -0.10105032838965414,
            -0.13492100449149624,
            -0.29120387386024105,
            0.0620958382039416,
            0.013998466310716677,
            -0.3240143796879892,
            -0.10425643658032219,
            0.08008266648623669,
            0.008764343047220556,
            -0.16152389509648235,
            -0.19546429302161694,
            0.008536152403020207,
            -0.05356831057624284,
            -0.04268978373687185,
            -0.1075721366542796,
            0.15171683901503213,
            0.08694712038338792,
            -0.08405401135743464,
            -0.2803474923593302,
            -0.30803134355780193,
            0.02868194675244527,
            -0.10391056505266166,
            -0.17279971478404205,
            -0.1944029636762507,
            -0.04713221755156512,
            0.16618597845644523,
            -0.005542441564643016,
            0.10410498144841834,
            -0.01297848358339747,
            -0.12469503367798361,
            -0.03618290526087743,
            0.09732465318646824,
            0.07169146039590753,
            0.062153271583302735,
            -0.04171419912663327,
            -0.060753903418334886,
            0.2858810722025859,
            0.1272253871201146,
            0.014659934161692374,
            0.19258910412763866,
            -0.18182554608216212,
            -0.2184674776469883,
            -0.05609604051454828,
            0.1113794380318408,
            0.16094247376368098,
            0.1742662355525127,
            0.08575588523836083,
            -0.13441160294477905,
            0.05849567374098726,
            0.19898945838159512,
            0.32800549476791974,
            0.08989583893795428,
            -0.20384991414485357,
            -0.22825398361202162,
            0.12154575374263538,
            0.4255375280183612,
            0.2322733581198874,
            0.05667803607688056,
            -0.254292331366556,
            -0.13046343270764285,
            0.1508200399609449,
            -0.03480066779383531,
            0.33462893972493635,
            0.020558566175486206,
            -0.26076054576577967,
            -0.07552651058726942,
            0.25195123527402147,
            0.483876445828396,
            0.2776506772586354,
            -0.1618916296662235,
            -0.11837320749777282,
            -0.1405482307502185,
            -0.10238974466792762,
            0.10026228559986808,
            0.20849071812996173,
            -0.11144969237046534,
            -0.4505969820096626,
            -0.46643480405110843,
            -0.07363852907781616,
            0.434671865221877,
            0.15607249280795937,
            -0.08007379792764668,
            -0.010758896380448876,
            -0.16665313980909022,
            -0.19523347520110546,
            -0.2559939564561583,
            -0.20200643165039386,
            -0.5133444725791018,
            -0.1979796499014394,
            -0.30845456071337857,
            0.1852692362762576,
            0.09942828096394925,
            0.22522278947199606,
            0.4371755440462421,
            0.238678010302381,
            -0.07316127022583112,
            -0.052342705265389915,
            -0.13958193074556918,
            -0.23204387944759894,
            -0.24482845203275358,
            -0.16712209475976317,
            0.08083107024840434,
            0.2453760974642224,
            0.1518306531239624,
            0.14333511951176167,
            0.3817975950212448,
            -0.030492552620686533
          ],
          [
            0.0594300497049761,
            -0.04345810744083401,
            -0.005961315041872311,
            0.018617607408438725,
            0.14733787812161916,
            -0.04127031471684516,
            -0.05458605539477194,
            -0.09881249239510224,
            -0.05936287030115782,
            0.029444703885661453,
            0.07211594987019675,
            0.12900543730409805,
            0.1928583256835497,
            0.053247664584404296,
            -0.01892309351529197,
            0.007215091309841378,
            -0.007978027453490417,
            -0.10454786025666687,
            0.030408829609847417,
            0.07906462666105482,
            -0.1308922942729692,
            -0.045526319365761105,
            -0.11764100490418988,
            0.04209555164219916,
            0.018622184238545992,
            0.04231122017008003,
            0.08471029684601812,
            -0.018113787853578617,
            -0.014175325549363732,
            0.07355191082815347,
            0.06356297743249117,
            0.07229105956777751,
            0.09346543588561206,
            -0.1362594788979671,
            -0.09478921236515793,
            -0.011049909037085736,
            -0.051654343758299706,
            -0.04457851742967825,
            -0.04329416515455511,
            0.041855963548065686,
            -0.05903921287268321,
            -0.1004328091343509,
            -0.12308510030574572,
            0.004307177748438991,
            -0.04845997287696504,
            0.011242164326500204,
            0.02978634986258204,
            -0.09004312078823894,
            -0.1287455176355297,
            -0.03456315541120774,
            0.04160654504496133,
            -0.054413137829039594,
            0.09454767918087115,
            -0.02373797982928422,
            -0.04382843273732275,
            -0.1733588982622338,
            -0.09666328440532229,
            -0.06266732554476186,
            -0.14281295074879172,
            -0.0008433210229201922,
            -0.042400634126589176,
            0.1255598008831606,
            0.01999739420587386,
            -0.023682205668385293,
            0.09917940926164259,
            -0.10137426284395495,
            -0.06572113522192144,
            -0.09302286157589207,
            -0.008207209580738553,
            0.02030621816464649,
            0.027465452794234266,
            0.13734005797926835,
            0.07108764631364375,
            -0.007847659214111905,
            -0.041223544184402126,
            0.026408933685808687,
            0.022459957156240003,
            -0.08885435389721737,
            0.053523984489741175,
            -0.119705810165321,
            -0.06593544234302313,
            -0.008578210879051027,
            0.12129051105220112,
            -0.05462985524937983,
            0.12576910033964292,
            0.05477544621215535,
            0.12883726595099232,
            -0.04641912806615642,
            -0.0593930903153323,
            -0.030440035073675424,
            -0.015200834786614317,
            -0.09668095103860465,
            0.06875732648470426,
            -0.0273859472867681,
            0.06454545927134661,
            0.06072950178650995,
            0.06438724393372647,
            0.09324025712740824,
            0.054898939657173074,
            -0.06270269442291264,
            -0.16680833893168112,
            -0.17250471712706356,
            0.00560763378411833,
            0.023850861465057854,
            0.11386530737562053,
            0.050331263455388874,
            -0.00205148871817866,
            -0.06235777403814006,
            0.0030386588198313908,
            0.046334692761903655,
            -0.05974968979127156,
            -0.0012165147700473116,
            0.01732436117699897,
            -0.009784978001477517,
            -0.06321069248749152,
            -0.0017593557369032437,
            -0.01990591422881382,
            0.09905901674949515,
            -0.10568767495820024,
            0.026919871623382365,
            -0.15132056774105174,
            0.09568686556077048,
            0.06118115267614103,
            -0.04483244771320958,
            0.09884540072260525,
            0.04547666214832849,
            -0.09469592052533748,
            -0.032353062285313566,
            0.08037239411223028,
            0.00106468024043878,
            0.15941096434117086,
            0.09698540987419366,
            0.10471856231510937,
            0.05009493895406907,
            -0.052415175396162174,
            0.0011391989588679964,
            -0.08867727632445128,
            -0.08939929040048851,
            0.08355188557235503,
            0.05094614988441015,
            -0.07832698589078525,
            -0.07929098702529361,
            0.08762157063198546,
            -0.04109175147452396,
            0.18546616657997997,
            0.15511587919347974,
            -0.012832714092781815,
            -0.022815408323030684,
            0.013851091334639683,
            0.1387459388736146,
            0.050550766142056947,
            -0.0659397877247896,
            0.06898422382321846,
            -0.10679079385302506,
            -0.021465772773323226,
            -0.06554843333850621,
            -0.07695619513863981,
            -0.06164337463318172,
            0.02454167688903974,
            -0.0717471827299813,
            -0.02880622617156639,
            -0.13617918150926162,
            -0.038616641136546795,
            0.0391430499828818,
            -0.14432961955418447,
            -0.020168690316188315,
            0.033671325706301256,
            -0.006452431126464892,
            -0.021764141674428368,
            0.11633845446141121,
            0.019638625567292806,
            0.048051605698212874,
            -0.058470570646975986,
            0.02268804510570437,
            0.09469168614783247,
            -0.08413320627657789,
            -0.06149813246584516,
            -0.10948093240035127,
            0.008168969427323858,
            0.12447238604738274,
            0.040981938478011744,
            0.034941010561707,
            0.05036129683509733,
            0.09766468179879895,
            -0.09143443841823591,
            0.010993598759200444,
            0.02037895507719547,
            -0.09082784863707913,
            -0.08692822177212318,
            -0.04141669138886286,
            0.08507335193158239,
            0.010096914429602822,
            -0.02813822967289097,
            -0.06620347236216702,
            0.0866068985495218,
            0.042091433058440514,
            0.0020118819298091534,
            0.011005597949907494,
            -0.0875985952481232,
            0.04834367062220556,
            -0.09074397479243715,
            0.037624805603340195,
            -0.13233816442582846,
            0.06640707113510534,
            0.01870670696063661,
            0.03179443177673295,
            -0.04557505590990264,
            0.02436700454574078,
            0.0030003958908807788,
            -0.10300407718318737,
            -0.05373203777126085,
            0.07949489243678566,
            -0.04398732841101446,
            -0.05105235199669518,
            0.048553817117474043,
            0.06266906055174991,
            0.07228717004708245,
            0.09245782973916487,
            0.020125545072117668,
            -0.11534163748686864,
            -0.09542580039405747,
            0.009195722294334583,
            0.04430246328749128,
            -0.009761841263019409,
            0.08107406657786106,
            0.044969063137559044,
            -0.24177702633604875,
            -0.0700707080370626,
            -0.11379003373570523,
            0.006961548334247119,
            0.05955441822830814,
            -0.025572098806202398,
            -0.03135186651843092,
            -0.04738153654449401,
            -0.12595811344608057,
            -0.028498313212656355,
            0.011757816656283431,
            -0.06639376482633404,
            -0.07990908421187762,
            -0.08988129109029654,
            0.004983968986137844,
            -0.030628954432557788,
            0.06557209577698887,
            -0.026972570217253553,
            0.10512129609729709,
            0.06534476455533728,
            0.09980120873348221,
            -0.2092023754278014,
            -0.18849748159440563,
            -0.0195496154081088,
            -0.039442855748471256,
            -0.12061705028500999,
            0.12820908817852592,
            -0.012772893531210925,
            0.09501914010023181,
            -0.014182799309623007,
            0.0776158417647037,
            0.09465082673174821,
            0.06874443141184196,
            0.011438728747318275,
            0.12021904832458133,
            -0.09546147059636452,
            -0.08106298693837706,
            -0.006572188717102591,
            -0.037025232091434934,
            0.08106593937028439,
            -0.03741230730390685,
            -0.0640021062176603,
            0.1127657511380549,
            0.016159565784427257,
            0.13586362792794315,
            -0.04149433664846746,
            -0.17502885294358303,
            -0.19931160862701333,
            0.06872872873257245,
            0.0020859137353041474,
            0.041541431030456294,
            -0.11586174845017502,
            -0.021031026759772267,
            -0.12545127037111403,
            0.0011647145045157034,
            0.01760599662234791,
            -0.1624929093531529,
            0.08728706688573042,
            -0.046408182140662786,
            0.11542339869192876,
            -0.06738156318329051,
            0.018776493701293362
          ],
          [
            0.013213239010183158,
            -0.047586374685808,
            -0.15093170329317762,
            -0.08299636854115897,
            -0.05628866166929064,
            0.03117716283504896,
            -0.011026090605875767,
            -0.06718625381633561,
            -0.04108610622525296,
            -0.023221707815057106,
            0.03676643414546206,
            0.09458126395390497,
            0.0733303172795508,
            -0.006926809625029947,
            0.022786243041786773,
            0.0427326387341276,
            -0.022275321819155734,
            0.04530646487523856,
            0.1273408386355409,
            0.14302066572197852,
            -0.1273749328924949,
            -0.013314103830764947,
            0.10368319312359442,
            -0.034567288338798054,
            -0.08658987465401843,
            -0.06377809048759518,
            0.17833810160033595,
            -0.02706941909221785,
            -0.014120176524142587,
            0.05161008940696402,
            0.04074104291033242,
            -0.051852073085711006,
            -0.08005110913811186,
            0.03731179526675464,
            -0.03640491384008322,
            -0.01034561484020112,
            -0.006273658682120616,
            0.08390347730312182,
            0.010949328088205703,
            -0.17750219293226652,
            0.050549892248812976,
            0.048798468608216634,
            -0.07517108615648753,
            -0.13808284990069922,
            -0.09776155180748283,
            -0.0020788308422262426,
            -0.0167110057080905,
            -0.0159155292875295,
            0.0013061469572530683,
            0.22889374339165716,
            -0.023028059496117154,
            0.019053797699377224,
            0.010345226037346635,
            -0.003944353443643291,
            0.0035816482224813096,
            -0.11493612051606872,
            -0.13551896031861033,
            -0.006866375119083605,
            0.08454192224074393,
            -0.001950884819953045,
            -0.0007567917692454498,
            -0.0251492687410185,
            -0.03194919522374139,
            -0.025402243067046148,
            -0.11861248092966134,
            0.06435414400763811,
            0.01067953921539528,
            -0.014365682588177475,
            -0.008912723197528491,
            0.10994898489520649,
            -0.10591719479014099,
            0.08711108654693013,
            -0.056922164456352294,
            -0.01624151960812847,
            -0.06340849157323003,
            -0.17301568205200377,
            0.046944331139038044,
            -0.012204673592147898,
            -0.05788450428300253,
            0.07133159156286445,
            -0.0048601152245127295,
            -0.15251994009110045,
            -0.026581062741285355,
            0.04612925423169233,
            -0.05428031450001796,
            -0.058554702402879216,
            0.16121789006705847,
            0.10434811986856227,
            -0.16335230901822795,
            0.03678620400272222,
            -0.05543086015438063,
            0.15633464182758788,
            -0.1136533138065216,
            -0.010933355124966808,
            0.07203798838603316,
            0.11357193078148597,
            -0.017584169188012325,
            -0.06363369507862114,
            -0.0029364039983756454,
            -0.04238649367892809,
            -0.0007484220324423998,
            -0.18317070189921258,
            -0.01660776755385222,
            -0.09243262710162133,
            -0.07634186296150239,
            0.06331357752462333,
            0.027808782788608457,
            -0.014967462859208372,
            0.1290181604414384,
            -0.03802024476557339,
            0.10666196566169849,
            0.139967574129588,
            -0.06035674629086593,
            0.1393786155867048,
            -0.014827198504781636,
            0.046198253123529494,
            -0.012660757061273627,
            -0.13271709548119523,
            -0.044952761553374805,
            0.028549052494251777,
            -0.02737912489177864,
            -0.0686394286819846,
            -0.06674933158233519,
            0.04748535883626617,
            -0.037252627756689506,
            0.022643922816573857,
            -0.11091306170112929,
            -0.03691836748692511,
            0.008747724837771207,
            -0.03524364963927122,
            -0.010921783448321527,
            0.10085189684735871,
            -0.07807590228760226,
            0.03183455760176413,
            -0.041495098159789266,
            -0.12132522093803955,
            0.16655446348613415,
            0.10496630472970252,
            -0.0771783868901418,
            -0.01851954066384858,
            -0.12663491314797878,
            -0.09537052495978464,
            0.07535995644990875,
            0.1729268277801335,
            0.08168520514381913,
            0.07660941242053614,
            0.07934875883770695,
            0.07747915121122464,
            0.17029194831414732,
            0.04411231884709743,
            -0.11904229605680917,
            -0.055930833156480654,
            0.008638493518760662,
            -0.04443869833604412,
            0.06442802022056396,
            0.004472094778270543,
            -0.037659062625328296,
            0.055566402558466496,
            -0.026563559634891896,
            -0.03523392641070071,
            0.0712015304695273,
            -0.028651278615386272,
            -0.060047410069359736,
            0.1197234421469773,
            0.13124423012755806,
            0.10369221993579664,
            0.04961750016310729,
            0.03741655523949207,
            -0.052406149896253,
            0.008087954590260717,
            0.0960845148613213,
            -0.1324565233752969,
            0.11058040276554132,
            -0.08713690862289844,
            -0.030726010800332333,
            -0.12951941372540834,
            -0.04319118551826682,
            0.11678554287256862,
            -0.10130294155919876,
            0.06752988358302218,
            -0.03331119882555462,
            -0.03212298917299493,
            0.029936190671929624,
            0.10117436626784591,
            -0.06083943396950838,
            0.040713400691228085,
            0.022831024170787827,
            -0.040383756083886155,
            -0.11964852464658475,
            -0.07422914325043664,
            0.08815207637125295,
            -0.1575187231321611,
            0.1018694805055886,
            0.21149059302263348,
            0.02047869733425354,
            -0.179610640644182,
            -0.08653206864843574,
            0.11611368371080477,
            -0.13293625014746333,
            0.0013157715547006032,
            -0.02238876857905196,
            0.023868720411773382,
            -0.11562644786101735,
            0.09400046456897039,
            0.048625509215301455,
            -0.010050335033339188,
            0.09809952296336494,
            -0.13979373383726562,
            -0.06843278811241203,
            0.0018297905887451602,
            -0.2182974824457462,
            0.024326099393598706,
            -0.0199662785114924,
            -0.01372077518939418,
            -0.11743652100843008,
            0.1554752502555244,
            0.04293163374918208,
            0.013125237415550864,
            -0.0005253955414047587,
            0.030329639668993047,
            -0.03765934689274196,
            0.06391987437547139,
            -0.03376056008153617,
            0.06335456382615397,
            -0.1370581311143441,
            0.09348684354285922,
            -0.08851846697160426,
            -0.003031547146488387,
            0.19608626040299418,
            0.07383388940948508,
            -0.04590716537274917,
            -0.06163168839879823,
            -0.037488878699427144,
            -0.05701453222097517,
            -0.060278144660342786,
            0.052095980877812725,
            -0.07448329604063057,
            0.039524800686316156,
            -0.11422657337308861,
            -0.01334815586205821,
            0.15951719687652,
            0.023925408135260038,
            0.058708785286807966,
            -0.17214186750348792,
            -0.0020256735368562703,
            -0.1939688549737885,
            -0.04941613512381523,
            -0.10162589791957341,
            -0.11771611089309764,
            0.051455639891089505,
            0.004418044814869304,
            -0.00011767916808606663,
            0.10767815148987671,
            0.13040069737459073,
            -0.0502428419285166,
            0.03384252532171704,
            -0.005838051012184715,
            0.040875139251948196,
            -0.1172269038050181,
            -0.06471419918564587,
            -0.07168778680197908,
            0.020306160694388495,
            -0.06524879537833148,
            -0.07625737107002913,
            -0.021264300552603102,
            0.11774790051280061,
            -0.05156618885426879,
            0.11309442535217135,
            -0.13860826816065544,
            -0.10010307965046232,
            -0.04468655668347613,
            0.06396318176962607,
            -0.08493050089418358,
            -0.054835518318398654,
            -0.0029019689132447593,
            0.05542264767647364,
            -0.10019945896646137,
            -0.2381468141907447,
            -0.02930986269991988,
            -0.06644621439291666,
            -0.0012502169886117601,
            0.06640520651208227,
            -0.0583696628953425,
            0.12714777215693748,
            -0.06607182072638565,
            -0.00023320117320905945,
            0.09229404515713424,
            -0.034071725814092124
          ],
          [
            0.17161710698372323,
            0.026266031095267168,
            -0.1111446382713012,
            -0.13306745773731316,
            -0.0883436515424975,
            -0.016419717101157794,
            0.022094635661124185,
            -0.07989873538197573,
            -0.10778054377718779,
            0.18749588459686362,
            -0.17767607644104486,
            0.014302315838440589,
            -0.15667780094046965,
            -0.14419993977573098,
            -0.32245893844194773,
            -0.11828039838356078,
            -0.10774670067484855,
            -0.21653306217533122,
            -0.2008282389194279,
            -0.1766300557871556,
            -0.2621583661955058,
            -0.15282115683130856,
            -0.16225740055117832,
            0.14641094081556305,
            -0.05158939784755507,
            -0.13664099427036858,
            -0.27598393414624134,
            -0.2442185048766472,
            -0.02437669744076083,
            -0.05291552914682503,
            -0.07215152317236966,
            0.5369336148879178,
            0.5073639708288653,
            0.6828845925099316,
            0.2613050217105621,
            0.4086166113968405,
            -0.058418614309851506,
            -0.2319168489376868,
            -0.3804720495848589,
            -0.02661577070440073,
            -0.13005745266868143,
            -0.15289257157904945,
            0.041959119751778726,
            -0.07565016206361191,
            0.18927908661369494,
            0.29145559051772724,
            -0.036215139539919707,
            0.24917063704085193,
            -0.018689354553896673,
            -0.19358449320810422,
            0.0580288199136287,
            -0.044550591160819504,
            0.24772636853888458,
            0.13938463660232014,
            -0.014146190207403755,
            -0.5943496863064406,
            -0.727835817907639,
